210 64
Winery -0.35620925 0.28741673 0.10022794 -0.037223484 0.47145715 0.4550113 -0.32309392 -0.44212174 -0.037666 0.25639975 0.25498277 -0.5053007 -0.11423697 -0.035158537 0.15212469 -0.16864666 -0.31400496 0.1897606 -0.391925 -0.3659335 0.68751884 0.26595557 -0.30295727 0.054474905 -0.08671386 -0.6981881 -0.16672204 -0.43317178 -0.15938252 0.18912768 -0.5327465 0.13768779 -0.16237679 0.2047272 -0.24840483 -0.22177388 0.74234617 0.06646106 0.33574542 0.21141745 0.33202216 0.088847995 -0.54403865 0.0621547 0.0075150854 0.06573496 0.10272708 0.09517147 -0.013569735 0.2800494 -0.038118117 -0.41686222 -0.30826768 0.055138927 -0.73574346 0.38249475 -0.2541746 0.23600149 0.012261302 -0.100484 -0.62330693 0.14639197 0.010405716 -0.24099752
Region -0.12038141 0.088276125 0.18979193 0.27527174 -0.56181777 0.002957371 0.5191354 0.00757259 -0.1605437 -0.17642921 0.7352624 0.19070835 -0.05545357 -0.33786073 0.10612927 -0.39017797 -0.09705957 0.42769986 0.5598584 -0.5634655 0.21065648 -0.2953802 0.27859896 -0.022483712 -0.106401816 0.22590186 -0.41432407 -0.40621722 -0.022624157 0.27405888 -0.20694546 -0.25796086 0.25792575 -0.088138595 0.00019125763 -0.10137664 0.122326404 -0.07891652 -0.2800869 -0.4529119 0.31388247 0.68753076 -0.5935987 -0.24889153 -0.17304122 -0.4415165 -0.43448392 -0.43784878 -0.5205607 0.20699042 0.24931626 -0.74456006 -0.38608128 -0.31993556 -0.6891576 -0.17374048 -0.24395405 -0.1473429 0.0005433015 -0.6660047 -0.055343386 -0.31035513 -0.17134784 -0.63954157
WineGrape -0.20920935 0.32250342 -0.1675899 -0.57382524 0.53876257 0.15837452 0.13021792 -0.018923443 0.009329695 0.06381366 0.39073572 -0.31988564 -0.7802623 -0.05448228 0.27654922 -0.42587858 0.7498047 0.7676069 -0.23583989 -0.24083051 0.72019583 -0.24806449 0.5177721 0.14605966 -0.733405 0.39112052 0.47501415 0.05537841 -0.63209057 0.7157628 -0.11878449 -0.66154504 0.33870223 -0.024486274 -0.154992 -0.31080684 0.7037839 0.5609894 -0.123065725 0.26724347 0.8744686 -0.0097540105 -0.66104764 0.4121786 -0.06897789 -1.4186698 -0.01903096 -0.1794129 0.20271493 -0.43456167 -0.024745965 -0.7351399 0.46133837 0.08507657 0.06953085 0.2485005 -0.8088835 0.31088167 0.207506 -0.16631888 0.2310377 -0.45772827 0.34117016 -0.2762492
Zinfandel 0.35427922 0.82247317 0.4157532 -0.7225308 0.77350575 -0.47986484 -0.22280978 -0.5685749 0.68005675 -0.14565639 0.850587 -1.0464376 0.26299194 -0.80508226 -0.047047578 -0.8756922 0.52567816 0.5167226 0.12042093 -0.26174295 1.6652508 -1.3136113 0.08839571 0.06403701 -1.5441651 0.00091341697 0.0849413 0.68897337 -0.6575067 0.3746468 -0.38024515 -0.47587532 -0.66503215 -0.49360073 0.6381315 -0.44611394 0.31479806 -0.39814708 0.18676674 -0.61277276 0.181755 0.8014383 -0.6193838 -0.25862566 0.49559948 -0.11293251 -0.7892018 0.5662281 0.04306066 -0.33987805 -0.33137843 -0.55518264 -0.7641667 -0.84378284 -1.062551 0.97123945 -0.5625768 -0.923619 -0.17112763 0.6280589 -0.06262784 0.82363474 -0.54117495 -0.37656346
Chardonnay 0.3950798 0.80330765 -0.19155584 0.28474414 0.610105 -1.1928506 0.10272516 -0.9933001 0.19722146 -0.17240883 0.80412304 -1.5550593 0.4510826 0.13916868 0.85613334 -0.30485767 0.5858637 -0.14136729 0.2764259 0.17476003 0.42182288 -0.8717975 -0.47716817 -0.20310666 -0.41404706 -0.18444447 -0.07247198 0.80821216 0.15579964 -0.9483388 0.6463555 -0.6481592 -0.86456513 0.7863293 0.63457036 -0.4787387 -0.16062413 1.2423757 1.2399907 0.10093723 1.0618562 0.16722988 -0.75429285 -0.45862207 -0.6186452 -0.89267856 0.09062231 0.58963805 -0.1061033 -0.3439995 -0.06974465 0.23763049 0.694139 0.33584154 -0.83673626 0.42106593 -1.3614842 0.6564554 -0.77363926 0.18686686 -0.25590625 -0.16226113 -0.11580767 -0.12894538
CabernetSauvignon -0.24325721 0.6139667 -0.41917074 -0.26184073 0.4010998 0.09365403 0.2768624 -1.6298344 0.38270986 0.6013916 0.7702885 0.39076802 -0.00641546 0.061633915 -0.4907408 -0.39065304 0.28515905 1.2172973 0.44926962 -0.47310096 0.60048 -0.40971988 -0.38806012 0.12955526 -0.63382065 1.2384247 -0.18294747 -0.1748583 -0.7784211 0.33349535 0.7065699 -0.49902743 -0.39452466 0.07186637 -0.052110508 -0.34191346 0.16308662 1.0577054 0.57412106 -0.2284514 1.0829047 0.97488564 -0.833275 -0.15326408 -0.7304868 -0.2728079 0.0125787705 0.8723612 0.8732331 -0.81887263 -1.178158 -0.866812 0.29044518 -0.8021097 -1.0066569 -0.0058039255 -0.95003855 -0.09825122 -1.0667357 0.89588284 0.31928074 -0.00058780814 -0.121946305 -0.29084057
SauvignonBlanc -0.15328644 0.2794147 0.3122287 -0.7734338 0.52927184 -0.5382668 -1.0920057 -0.59579796 -0.22297779 0.82212603 1.1054646 0.40943593 0.7591252 -0.80830455 0.27900586 0.037377886 0.08852951 0.7926982 -0.20469372 -0.6195599 0.96702117 -1.0119544 -0.5066218 -0.5721434 -1.2798014 0.6592148 -1.2433679 0.4151591 -0.29198253 0.44829893 0.470564 -0.6772303 -0.60400146 -0.59104425 0.08009057 -0.72507125 -0.47786847 -0.18986182 0.051113587 0.22206579 0.07825438 0.8307132 -2.03987 -0.036301453 -0.76555866 -0.1820269 -0.11621502 0.6849118 0.62801874 -0.5282223 0.66759026 0.17470174 -0.6411499 0.20294318 -0.3081104 0.059482347 -0.9454701 0.03277679 -0.91633517 0.40212673 -0.6845164 0.14065143 -0.10217319 -0.029797046
WineColor -0.051997416 0.3275164 -0.7192167 0.26137516 -0.75298536 -0.11462201 0.4510456 -0.57573044 1.0105683 0.6923795 0.65804476 -0.36679783 0.32431188 0.46362233 0.54648834 -0.20100588 0.48597395 -0.40268683 -0.19801748 -0.65881276 0.17284475 0.10872511 0.13816698 0.2832195 -0.16083837 -0.07597525 -0.6234732 -0.4869983 0.7116169 0.013196627 -0.0830319 -0.5890652 -0.1450791 0.5443735 0.104718685 -1.0600117 0.45174214 0.7174061 0.08290811 -0.0702721 0.57242596 0.8259239 -0.60466975 -0.27851024 -0.56917226 -0.872131 0.55397177 0.6265138 -0.033683028 -0.3326014 -0.11947696 -0.65338004 0.4814897 0.1306167 -0.5797737 -0.6353574 -0.51989746 0.95943964 -0.22996333 0.07722425 -0.13228896 0.3094408 0.15702559 0.41483736
WineFlavor 0.23004088 0.4226576 -0.23915349 0.28341618 -0.8437549 0.14968404 0.3368561 0.004801756 1.088246 1.097527 1.2198033 -0.23315871 -0.004533678 0.36392403 0.1425081 -0.5284821 0.6350279 -0.18996035 -0.116336964 -0.5220938 0.32936078 0.25099573 0.16084978 0.5332754 -0.26757953 -0.36344612 -0.7222637 -0.80028605 0.21884373 0.3909444 -0.01421365 -0.5837904 0.20943716 0.37203425 -0.21362187 -1.1309211 0.23187172 0.40458727 -0.14388685 -0.11634697 0.93981653 0.44821012 -0.32181236 -0.10165366 -0.534355 -1.1341474 0.36293024 0.67157286 0.14293076 -0.26982298 -0.113891505 -1.1816627 -0.04621708 0.15703605 -0.43721887 -0.1508121 0.05955538 0.30881387 0.23092507 0.0636336 -0.07092729 0.713689 -0.18024363 0.6001519
wine -0.03742332 0.25930926 -0.4897421 -0.39266908 -0.28603992 -0.668116 -0.12899281 -1.3299297 0.009908274 -0.6077847 -0.29328468 0.4003572 -0.5184902 -0.7710283 0.30157855 -0.11978809 0.22483598 1.1785727 0.9687788 -0.535103 0.32984588 -0.52855366 0.16463861 -0.68312854 0.36839175 0.44652236 -0.8975242 0.02275108 -0.36675254 0.48762372 -0.7153572 0.049480412 0.16940103 0.5941572 -0.55868334 -0.043900594 0.55838835 0.8959568 0.033919442 0.23915188 0.6465505 0.20555428 -0.60915315 -0.33554 -0.6970139 -0.51291865 -0.54634625 0.49917313 -0.33213016 -0.8860904 0.26965317 4.1469862e-05 0.40567285 1.4703074 -0.18880239 0.31085604 -0.15581684 0.011792092 -0.021308534 -0.06199272 -0.6128883 -0.123462915 -0.36244622 -0.63354605
WineTaste 0.17383297 0.3041901 -0.42218322 0.15635799 -0.80888796 0.08939995 0.30094925 -0.21171 1.1543165 0.82333016 0.89026344 -0.49184144 0.07969768 0.24485123 0.19919342 -0.4020563 0.6051975 -0.30774653 0.077615805 -0.7585432 0.12786967 0.29915017 0.27130967 0.35558832 -0.30885142 -0.3829296 -0.80554706 -0.6360105 0.37942797 0.24841791 -0.19924018 -0.8280073 0.1486238 0.3946295 -0.20284976 -1.0065607 0.1832346 0.48644307 -0.15332554 0.13718686 0.7902482 0.7002367 -0.43411714 -0.19373658 -0.5162322 -1.0300058 0.36720037 0.67827946 0.028027862 -0.30975345 0.04162813 -0.7595278 0.15492956 0.4068104 -0.19195431 -0.2762399 0.13447098 0.5776522 0.16455534 0.14944038 -0.08949393 0.58010066 -0.06465854 0.7096557
WineSugar 0.0037478618 0.4021125 -0.39252988 0.2733256 -0.65853053 0.15885703 0.32804772 -0.051446795 1.0224105 0.8968791 0.9409474 -0.67008483 0.14080605 0.22337353 0.33224565 -0.6001128 0.79009724 -0.29659775 0.43279302 -0.5105005 0.058358125 0.33687943 0.3059217 0.2246243 -0.15083863 -0.523419 -0.75840276 -0.46503428 0.421416 -0.0015320232 -0.27927053 -1.0292925 0.35268804 0.1675264 -0.08450082 -0.8290912 0.0560771 0.6285103 -0.06382157 0.19050977 0.737779 0.5162366 -0.49911654 -0.07272802 -0.36514112 -1.0328208 0.1889292 0.45978293 -0.18761113 -0.15544641 -0.06879952 -0.956144 0.15016733 0.68088484 -0.041418396 -0.049868744 0.1425117 0.64745736 0.25689444 -0.10642834 0.12585664 0.3356884 -0.0148186395 0.7142051
PinotNoir 0.7372795 -0.8658517 0.18164754 -0.0711228 0.1635101 0.20966098 -0.42750186 -1.3455788 -0.4478465 -0.3586736 0.6428863 -0.5314804 0.5897234 -0.7087173 -0.7065684 -1.0908585 -0.9878702 0.43263635 -0.12489649 -0.20460692 0.50697595 -0.2858161 -0.72513086 -1.3812531 0.48256338 -0.15856 -1.1536626 -0.17392734 -0.70424944 -0.21609335 1.2677674 -0.44224638 -0.7186801 -0.6630046 0.57377946 -1.1609578 0.21284512 -0.45326263 0.5076237 -0.038111813 0.6111305 0.25312603 -0.83633953 0.20432316 -0.84477097 -0.30560517 -0.08796355 -0.28842485 0.7066871 -0.09186416 0.097640485 1.424118 -0.21794942 -0.76927096 -0.7502856 -0.49768874 -0.67662513 -0.7224562 -0.7392846 0.000810711 -0.31891823 -0.17095368 0.1288085 -0.6049952
WineBody 0.12871802 0.4737249 -0.54452163 0.47291178 -1.0550578 0.53895384 0.25893238 0.014487656 1.1315225 0.8447798 0.7015563 -0.41527015 -0.21423201 0.26309136 0.14704873 -0.35851413 0.5281189 -0.26121122 0.24289629 -0.9239134 0.10749341 0.36750102 -0.04082411 0.56112975 -0.40452468 -0.09405883 -0.7338873 -0.55220175 0.45075998 0.185918 -0.5236522 -0.6169062 0.06541173 0.47363997 0.0028011012 -1.2141662 -0.026338447 0.33994284 0.31921536 -0.112500794 0.85320646 0.65773475 -0.77326876 -0.12453773 -0.41215602 -0.80813545 0.36713096 0.801931 -0.2047656 -0.3603564 0.167295 -0.35568222 -0.17421716 0.37492138 -0.14532657 -0.10927095 0.40591025 0.28423715 0.2959135 -0.3558639 -0.31294775 0.29694444 -0.28423503 0.8585025
SweetRiesling -0.12908375 0.33838892 -0.55812925 -0.13415584 -0.19392405 -0.7608799 -0.24622612 -1.3354199 -0.06987635 -0.28068385 -0.5767242 0.33715603 -0.50812143 -0.42476463 0.02687268 -0.113585606 0.29594618 1.0991758 1.192521 -0.7975708 0.012098947 -0.48243174 -0.30118045 -0.4963303 0.5056284 0.8519469 -0.72858506 0.078015335 -0.5236007 0.8249853 -0.75460494 0.1279303 -0.32456076 0.47975406 -0.48218542 0.03515625 0.34304103 0.8533468 0.42225328 0.6333946 0.67321175 0.39706555 -1.119838 -0.22714075 -0.6580105 -0.31066447 -0.18229191 0.4824207 -0.5218248 -0.52994686 -0.034654986 -0.084274605 0.3834047 1.0084553 -0.5514322 0.102863744 -0.17567384 0.45664924 -0.44157204 -0.4056342 -0.40554506 -0.5210214 -0.039020654 -0.33503997
DessertWine -0.11941307 0.28535864 -0.48949397 -0.30165154 -0.1776373 -0.6386048 -0.16138235 -1.335116 -0.2570235 -0.41809976 -0.38422203 0.41262516 -0.6494879 -0.48201326 0.12501894 -0.09064607 0.24724813 1.221158 1.2329774 -0.68784 0.16438071 -0.53765875 -0.13183881 -0.5406291 0.2742227 0.73693895 -0.83172256 0.0071753706 -0.50900805 0.5800838 -0.635978 -0.0821656 -0.13809249 0.5086127 -0.5168282 0.048371363 0.4597641 0.85753447 0.21664998 0.48073533 0.6705457 0.36394772 -0.9718983 -0.29792932 -0.55428773 -0.36520484 -0.36924967 0.43818262 -0.38280457 -0.77903837 0.2030278 0.030625556 0.4891477 1.1975389 -0.26726404 0.22667661 -0.14207171 0.37660554 -0.27143738 -0.2711523 -0.5679084 -0.2878861 -0.26795664 -0.45323625
Sauternes -0.34363607 0.75739956 -0.45058778 -0.05638627 -0.53489643 -0.1315298 0.075771846 -1.0237224 0.08428623 -0.53922206 -0.024548024 0.2765755 -0.28049847 -0.9028099 0.4081543 0.10620678 -0.0024856064 1.1352241 1.3837655 -0.69125813 0.36737162 -0.31599417 0.22823617 -0.746271 0.16607621 0.3840676 -1.1864414 0.0556389 -0.061371382 0.08006195 -0.9579118 -0.20589398 0.42767814 0.5346135 -0.51043797 0.07163553 0.60600257 0.8316418 0.34550223 0.28499794 0.73535264 0.43140614 -0.84243035 -0.45360416 -0.5464689 -0.34953114 -0.82876915 0.51671076 -0.39812887 -0.8820841 0.0922728 -0.15517507 0.19385572 1.6310211 0.32067004 0.5493334 -0.019190466 -0.15223043 0.5375528 -0.26871026 -0.29531717 -0.12019635 -0.47624463 -0.43534666
Merlot 1.226121 0.04353473 -1.0554594 0.16487777 0.7160962 0.46525496 -0.15032125 -2.01131 1.1142441 -0.6274369 0.0711094 -1.2495031 0.49703297 -0.7593995 -0.79675287 -1.1318295 0.41446924 0.3486703 0.8422312 0.06512475 0.97139585 0.40147874 -1.3478795 -0.7546369 0.24129617 -0.022928447 -0.73943424 0.63150024 -0.6420373 0.9195158 0.056962408 0.05960972 -1.3302909 -0.06421925 0.53540444 -0.4171098 0.15180314 0.756265 1.1337248 0.15510242 0.6904456 -0.09601144 -0.94021183 -0.5464914 0.2762824 0.058460873 -0.72187686 0.4305921 -0.24929196 -0.56715775 -0.6349837 0.6199292 -0.1297041 0.03500249 -0.9040989 -0.012909979 -0.6416828 -0.9924697 -0.43117943 -0.114072666 0.12649657 -0.5728496 0.17310616 -0.3173049
PetiteSyrah 0.13407822 0.43833813 0.12727268 0.32339552 -0.45537326 1.022651 -0.06783862 -1.8177202 0.19491336 -0.7162052 0.028389566 -0.70310414 0.34282535 -1.3515477 -0.5120204 -0.25688788 -0.7882537 1.362361 1.0052148 -1.1343616 0.14062862 0.34964713 -0.83414376 -0.5683697 0.25088447 0.002721795 -0.5730223 0.17634438 -1.2642154 0.23351747 -0.27959752 0.48410502 -0.5798455 0.31252384 -0.39468303 0.012531709 0.46726036 0.57163864 1.0783886 -0.2379717 1.4217193 0.648219 -0.86771005 -0.6843623 -0.77030754 0.35111418 -0.75988805 0.2769237 0.28720826 -0.33425188 -0.9128291 0.6350767 -1.0840358 -0.21567228 -0.7780694 0.4482799 -0.039981585 -1.6109434 0.40778813 -0.0780068 0.5972118 -0.10165335 -0.1076301 -0.9072425
Chianti 0.4841489 0.63898915 -0.7686014 0.40281883 -0.14453305 -0.26355308 0.88536155 -1.9772356 1.2419429 -1.1289579 -0.36279702 -0.9368493 -0.3209281 -0.35439953 -1.1206874 -1.6147922 -0.32888174 0.6524548 1.3462353 -0.7897138 -0.12687029 -0.4420639 -0.5659612 -0.80898553 0.48753244 -0.1205183 0.08966002 -0.06262095 -0.5820026 0.08034101 -0.28747207 0.24668245 0.017826451 -0.20272298 0.2139435 -0.82130116 0.70151234 0.18871339 1.2096411 -0.09239277 1.1932211 1.200602 -0.106219016 -0.093023665 -0.113498695 0.34912977 -0.4163274 0.7907238 -0.54253745 -0.0004077813 -1.001596 0.41042957 0.014438217 -0.35836473 -1.3477257 0.117973216 0.0064078104 -0.6783292 -0.5593219 0.18744834 -0.10079415 -0.5198014 -0.42054254 -0.3968911
CheninBlanc 0.117089815 -0.16052642 -0.73183846 -0.21493281 0.03154349 0.9226549 0.62854975 -2.0217443 -0.08752463 -0.47692913 -0.15423623 0.22017097 -0.0015392401 -0.68981534 -1.5470257 -0.89298 -0.16208172 0.98765475 0.90490365 0.19967186 1.0265155 0.17412484 -0.55786127 -1.5058159 1.1220859 0.20922133 -1.0208285 -0.5571066 -0.32372907 0.5155624 -0.675367 -0.1966904 -0.16224647 -0.5486843 0.40957102 -0.2325284 1.46708 0.22494206 1.1453346 0.05193701 0.45909768 0.20114633 -0.40808374 0.20517848 0.17564288 0.13872662 -1.1333673 0.008378555 -0.43347952 -0.33758026 -1.0722102 -0.38886243 -0.14472857 -0.6081574 -0.8688272 0.31991372 -0.52254647 -0.8858957 -0.044255033 -0.6031525 -0.11172023 -0.44590646 0.37982547 -0.75737983
Semillon 0.5881552 -0.19715519 -1.2721366 0.14834735 0.39006746 1.013369 0.6663443 -1.765075 1.0782263 0.27271414 0.15516862 -0.96069026 0.14039478 0.31066376 -1.2233422 -1.2931782 0.59420455 -0.06831303 -0.033171788 0.21216929 0.5663189 0.5604422 -0.6741175 -0.83565056 0.5570509 -0.45240653 -0.5114506 -0.56744814 -0.19794852 0.52215034 0.25768006 -1.0837759 -0.34621456 -0.30260268 0.48158854 -1.0927052 1.0079092 0.5849305 1.1795783 0.48702246 1.0670971 0.065205574 -0.24519272 0.34841558 0.01002646 -0.75962365 -0.08352732 0.35693714 0.3895298 -0.157445 -1.1974365 -0.23893023 0.3756204 -0.6424997 -0.3003864 -0.098249346 -0.69295895 -0.015077231 -0.13792016 0.07004335 0.38409293 -0.5061816 1.004743 0.3884524
WhiteBurgundy 0.5493532 0.36628705 -0.2618376 0.08326848 -0.50950825 0.5574247 0.47638357 -1.0298778 1.253616 -0.32007238 0.5103918 -1.6094656 0.44431788 -0.7337972 -0.6099436 -1.2170031 -0.54235154 -0.030008981 0.015034129 -1.0444777 0.08549203 0.31535882 -0.033324655 -0.64355236 -0.20409563 -0.6368772 0.26912734 0.14459121 -0.47176042 -0.37631807 0.32278043 -0.17670687 -0.023480663 -0.24391298 0.054262567 -0.91962713 0.69421476 0.14359124 1.2135359 0.22940727 1.4400092 0.8205511 -0.57688624 0.08230333 -0.6335244 -0.47224087 -0.0585116 0.77927667 0.6425465 -0.34428075 -1.5444237 0.62290245 -0.09559778 -0.7000641 -0.4733732 0.2135772 -0.39095137 -1.0045053 0.2924086 0.59535986 1.0291568 -0.11951597 0.15494004 0.16164967
Port -0.10564681 -0.042120125 -0.37056506 -0.1719579 -0.48283067 1.885949 0.4096219 -1.3523246 0.298457 0.16383645 0.69361085 -0.0090292245 0.43835887 -0.8739249 -0.7995635 -0.3667648 -0.361998 0.99322367 0.41077927 -0.2745828 0.4375102 0.83057964 -0.35101575 -0.9870522 0.037313394 -0.036217924 -1.3638911 -0.24386786 -0.672639 0.21860936 0.3656009 -0.7802818 0.050122336 -0.7505609 -0.25562793 -0.6280305 0.86007035 0.0927718 0.4952717 0.42185214 0.7342262 0.3235048 -0.9971206 0.019377012 -0.19752088 -0.32139876 -0.692692 0.048279375 0.9446502 -0.6002256 -1.1202725 -0.14938278 -0.6907456 0.021287048 0.37522697 -0.15676278 -0.31831047 -0.9309844 0.881782 -0.09485077 1.3080683 0.008988342 0.60482085 -0.032538675
WineDescriptor 0.087086365 0.16449419 -0.54514825 0.09010378 -0.8450762 0.040079776 0.40192777 -0.43417135 1.056894 0.88629967 0.837822 -0.18872051 0.24526457 0.21291164 0.27832717 -0.47318578 0.7674342 -0.2673463 -0.065843426 -0.38498378 0.059909534 0.407142 0.15904216 0.24385361 -0.14600384 -0.3318086 -0.85838234 -0.5463135 0.64260054 -0.05535889 -0.089920774 -0.8235815 0.05635022 0.29152745 -0.035260428 -0.96226877 0.110943176 0.8013013 -0.010743469 -0.08914223 0.49632692 0.5737806 -0.520344 -0.12875433 -0.5523134 -1.0134513 0.36377615 0.6883266 0.031650845 -0.3443919 -0.13484974 -0.82402694 0.14995478 0.381255 -0.5031402 -0.29504555 -0.28264415 0.68943423 -0.014464719 -0.030956775 -0.07666302 0.3330826 0.103540994 0.5571041
LateHarvest -0.23279455 0.5001313 -0.46037328 -0.24189372 -0.46590218 -0.21292165 -0.022282721 -1.1713898 0.04382032 -0.50720596 -0.13755122 0.33805814 -0.43225962 -0.7872626 0.32293284 0.06880062 0.1429779 1.2093253 1.247916 -0.63337374 0.27475205 -0.35719442 0.14750028 -0.6466813 0.17895009 0.44586188 -1.1425824 0.024661075 -0.25129423 0.2327553 -0.8146412 -0.20472497 0.24456003 0.5623036 -0.55723864 0.0023839488 0.5148505 0.88369095 0.153279 0.24797714 0.7006532 0.37377873 -0.7933026 -0.40609515 -0.5625117 -0.36636528 -0.6474138 0.48362708 -0.34805822 -0.9143662 0.20045832 -0.02920741 0.23629217 1.5388792 0.12480592 0.41414016 0.036411382 -0.060766067 0.24899094 -0.17170775 -0.41479295 -0.03335429 -0.40275827 -0.4496113
DryRiesling 0.9621658 -0.80264294 -1.1913341 0.2951793 -0.42967495 0.29813063 0.030631373 -0.7278101 0.55197775 -0.948225 0.16229773 -1.1936548 -0.68482554 -0.28311718 -0.40404215 -0.7511575 -0.22361818 -0.14684632 -0.16184771 -0.8217519 0.5519395 -0.6450858 0.5440015 -1.525881 1.0565355 -0.6092082 -1.6622348 -0.49793425 -0.6530422 0.81355697 0.053308684 -1.3085008 -0.079838775 0.29891863 -0.30765048 -1.2516161 0.86907756 -0.3196198 -0.022946576 1.707597 1.5600455 -0.51151645 -0.6601759 0.84513915 -0.59866035 -1.9488344 0.42229933 -0.55567086 -0.0072423103 -0.17928153 0.6470433 0.6628964 0.74214226 1.1284423 0.5496857 -0.23201476 -0.054060347 0.22528242 0.4154359 -0.48275375 0.016228892 -0.25387606 0.49503216 0.07183538
MountadamRiesling 0.9850267 -0.8205695 -1.2115922 0.30638203 -0.46147478 0.25946614 0.0560983 -0.761378 0.55816644 -0.97110254 0.10857949 -1.2216737 -0.7115926 -0.29145733 -0.3909633 -0.74198383 -0.2223563 -0.17226231 -0.13975558 -0.84489083 0.50857705 -0.65814245 0.55916107 -1.5213637 1.0761714 -0.62040174 -1.6364279 -0.48654112 -0.65240127 0.7859289 0.04515947 -1.2847967 -0.08356442 0.35112882 -0.30092016 -1.2502838 0.8687581 -0.27233878 -0.017167147 1.696148 1.6081316 -0.5257414 -0.63619906 0.82046473 -0.60283667 -1.967484 0.44145253 -0.5548139 -0.02705096 -0.18439014 0.6282991 0.7068216 0.76772344 1.1138164 0.5425881 -0.22458932 -0.055746306 0.24757531 0.42543656 -0.51554745 0.01554636 -0.2704067 0.5287456 0.039835166
Meursault 0.831299 -0.91314715 -0.13228099 0.14885862 -0.89620197 0.7837322 0.26412013 -1.3350507 -0.16577344 -0.90476197 0.36034882 -0.8024958 -0.5859413 -0.5607263 -0.40159836 -1.6863643 -0.69099736 0.46412516 0.36143312 -1.3659608 0.3147345 0.675248 -0.28106034 -1.0663226 0.76251245 -1.0809491 -1.287376 -1.2190088 -0.32402718 0.33663666 -0.61570466 -0.5376225 0.13825722 0.12773086 -0.20992838 -1.3532784 1.2147478 0.2114424 0.34304696 -0.27457193 1.3861231 0.5015295 -0.8022175 -0.2753005 -0.7201837 -1.2876545 -0.02353005 -0.56448776 -0.65548116 0.10954218 0.65506905 0.85477644 -0.077696934 0.055478096 -1.2548056 -0.5245533 -0.06540489 -0.25536713 0.31100968 -1.3641527 -1.365819 -0.11742675 -0.07026788 -0.66060543
ChateauDeMeursaultMeursault 0.91851705 -1.0003625 -0.044959873 0.20026547 -0.9208707 0.645864 0.32030886 -1.3577061 -0.28353396 -1.1196853 0.18226247 -0.5773058 -0.60648525 -0.6021708 -0.33986366 -1.7053386 -0.71654755 0.56994736 0.5129059 -1.3219771 0.2057979 0.5783914 -0.313853 -1.0515971 0.8344635 -0.8195446 -1.1733538 -1.0507108 -0.2944372 0.32714537 -0.6762489 -0.4081737 0.2043989 0.09206163 -0.26039279 -1.162044 1.1460155 0.19706428 0.34471062 -0.31924504 1.3885136 0.546737 -0.8449707 -0.34367362 -0.73584604 -1.1335039 0.013833939 -0.64908475 -0.75071955 0.084426016 0.66606563 0.8539848 0.025968062 0.1405077 -1.3264983 -0.52834415 0.010711965 -0.31942913 0.22719733 -1.3575262 -1.3971301 -0.16215226 -0.17936763 -0.8202014
RedTableWine 1.1922957 -0.2026679 -0.046728235 -0.0817801 -0.09783437 -0.5250404 -0.08702592 -0.84951234 0.17237814 -0.7892049 1.2222695 -2.2640047 0.46905237 -0.9974579 0.26061356 -0.73269683 -0.22710963 -0.5424444 -0.015447515 -0.44066107 1.0227579 -0.2846432 0.04910177 -1.5510921 -0.063082166 -1.7671328 -1.4724467 -0.13554487 0.13237415 -0.3448265 -0.1914318 -1.340384 -0.7401742 0.11361805 0.202905 -1.2055653 0.8881617 -0.30865073 0.5228622 0.6605498 0.62350637 0.39402565 -1.3264792 -0.37356666 -0.20951216 -1.7372472 -0.4469404 -0.19363077 -0.50171727 0.29855266 1.028194 0.7944838 0.117273904 0.36041036 -0.6611132 0.083706185 -1.3252665 0.37847057 0.48142794 -0.7838752 -0.82616127 0.03898856 0.15917741 -0.42457068
MariettaOldVinesRed 1.2062259 -0.24637571 -0.08907803 -0.124118745 -0.10924414 -0.44020188 -0.0771126 -0.8665404 0.2083875 -0.7717041 1.1725237 -2.2459764 0.42367393 -0.971186 0.19906272 -0.80165595 -0.21030511 -0.5135611 -0.01774039 -0.46497852 1.0018348 -0.23418632 0.047149602 -1.5141287 -0.08765129 -1.7236776 -1.4239004 -0.15132402 0.10386462 -0.33786547 -0.1967153 -1.3781128 -0.6961594 0.034785528 0.21805672 -1.261988 0.89003116 -0.30933052 0.5203222 0.6101715 0.67433244 0.39191934 -1.3193542 -0.3309988 -0.20428678 -1.7587304 -0.4214277 -0.19606462 -0.4561859 0.24253862 1.0129457 0.838788 0.1364924 0.31689656 -0.60232556 0.042863756 -1.2778155 0.3373103 0.48887393 -0.74559444 -0.8146664 0.032341707 0.16935112 -0.40760046
SevreEtMaineMuscadet 0.5999651 -0.84341866 0.51673245 0.5085436 -0.8568183 1.3743867 -0.49206582 -0.13501833 0.32808402 -0.008535821 0.9820509 -1.5471463 -0.46081448 -1.143754 0.04815989 -1.0250624 -0.750936 0.04894981 -0.44872066 -0.6715585 0.5311436 0.14820504 -0.57719404 -0.42537346 0.9226627 -1.1953708 -0.12584238 -0.1963704 -0.99913776 0.24343951 -0.0310755 0.43020386 -0.011997729 -0.47729924 0.704218 -1.544202 0.24491745 0.18516402 -0.07945029 -0.6315153 1.2903051 -0.39912456 -0.7410643 0.5818867 -0.79856646 -1.0764124 -0.38453522 -0.5899803 -0.2509928 0.22817482 0.700018 1.404808 -1.6473962 0.17247619 -0.6580883 0.11047919 -0.27254325 -1.0697188 0.40773857 -1.3428758 -0.6028467 -0.66941047 -0.50149196 -0.878092
Muscadet 0.5985795 -0.8310535 0.5227787 0.4678449 -0.8282688 1.3942001 -0.51814646 -0.1296331 0.32281956 -0.016277583 0.97698 -1.5094671 -0.44388354 -1.1759517 0.04648431 -1.0841428 -0.74479437 0.09268351 -0.48145124 -0.68630415 0.55890125 0.17051314 -0.60442907 -0.43679702 0.8564905 -1.1563344 -0.0974502 -0.20786603 -0.9992467 0.28629547 -0.018844659 0.41155785 0.060831975 -0.5286057 0.69045055 -1.5818436 0.29428527 0.20887907 -0.0827034 -0.68476605 1.3006395 -0.3620076 -0.76036173 0.5867414 -0.8015996 -1.0604945 -0.38424826 -0.6076437 -0.22799826 0.23464713 0.6819322 1.4269199 -1.6501656 0.1536885 -0.6851535 0.06631274 -0.30730984 -1.1293483 0.39169744 -1.3443415 -0.660115 -0.6756048 -0.48866066 -0.88233167
IceWine 0.81082773 -0.61494464 -0.36890644 0.45418003 -0.48651326 0.79790914 -0.33586463 -1.3071946 0.2255436 -0.6369571 0.9624943 -1.3683125 -0.24655235 -0.7939887 -0.27761987 -1.6437728 -0.64181715 0.44787496 0.3087774 -1.116503 0.85873896 -0.15274632 -0.43045172 -1.4551201 0.9041435 -0.88004065 -1.721636 -0.667767 -0.9453186 0.5718458 0.20436472 -0.8278811 -0.10088689 -0.107366286 0.016447034 -1.7082794 1.0208073 -0.13011606 0.38305938 0.6760306 1.5991362 0.0786997 -1.6022772 0.40754205 -0.9673848 -1.4360043 -0.16866112 -0.42184213 -0.28072158 0.057261758 0.8607562 0.89727503 -0.1954495 0.6236423 -0.7196567 -0.32723406 -0.3776647 -0.508746 -0.04027672 -1.0173551 -0.72001946 -0.5237186 -0.014554073 -0.6368419
SelaksIceWine 0.8199823 -0.6248678 -0.35554257 0.4744816 -0.4901813 0.7673196 -0.31631795 -1.293834 0.20373042 -0.6608426 0.9820972 -1.3715917 -0.26941624 -0.78788865 -0.29922655 -1.644324 -0.6452651 0.449531 0.3423322 -1.1015315 0.8703332 -0.1939566 -0.4056793 -1.446817 0.9282901 -0.875482 -1.7196283 -0.6527608 -0.98205036 0.56473476 0.21590559 -0.83477163 -0.13368239 -0.11166666 0.03731572 -1.6783152 1.0018133 -0.18267967 0.35696393 0.69136137 1.5876887 0.05673921 -1.5998615 0.41270548 -0.96141034 -1.4471477 -0.19736543 -0.45090404 -0.29727522 0.06292291 0.8879438 0.87552226 -0.18022946 0.5911629 -0.71990496 -0.30631125 -0.37692457 -0.5110234 -0.04014126 -1.0093164 -0.6672353 -0.52596456 -0.016126383 -0.6714311
StGenevieveTexasWhite 0.53003657 -0.43121412 0.17772943 -0.57943285 -0.6951265 0.66952807 0.33522403 0.22105727 -0.41215855 -0.43107733 0.6326445 -1.2199402 -0.607844 -0.6532603 0.55516875 -0.5775509 0.15306027 0.07052294 -0.40542376 -1.2531105 0.3135046 1.0242707 0.3738824 -0.33336455 -0.63002366 -1.6590226 -0.47078738 -0.7579869 0.53945315 0.21666078 -1.265769 -0.86130774 0.470899 0.40236178 -0.121904545 -1.1291916 0.858383 0.5784911 -0.08434246 -1.2014805 0.39677244 0.30731845 -0.26915345 -1.039566 -0.2767847 -1.8734146 -0.38441277 -0.63002867 -0.80348164 0.2720009 0.9912071 0.9637943 -0.40436423 0.3996644 -0.37605882 -0.4371725 -0.2249929 0.42569357 1.5325334 -1.5794673 -1.6008761 0.22701865 0.025587292 -0.06367002
WhiteWine 0.517256 -0.4660897 0.1531601 -0.57452995 -0.70809746 0.7483231 0.32100278 0.23239172 -0.36943364 -0.45467642 0.59558254 -1.184531 -0.62584627 -0.6170385 0.49669135 -0.6133678 0.18217935 0.024822809 -0.47563475 -1.2171792 0.29850867 1.0584321 0.37009993 -0.32815135 -0.62021494 -1.6217238 -0.4289007 -0.7869476 0.4967228 0.24450788 -1.193585 -0.9013388 0.54293036 0.39224067 -0.15070626 -1.1142606 0.9188674 0.5930742 -0.1461165 -1.1430961 0.40153056 0.31227577 -0.23987287 -0.9110252 -0.23902471 -1.8609295 -0.35223746 -0.66274375 -0.7538936 0.27011177 0.9561223 0.9715716 -0.38086477 0.326432 -0.3250838 -0.47196126 -0.2534407 0.38687602 1.4616907 -1.5587952 -1.5659714 0.1751352 0.05470499 -0.01750837
ClosDeLaPoussieSancerre 0.0026121011 0.039365627 0.6336139 -0.21754956 -0.6373273 -0.45139152 -0.28681365 0.9342036 -0.7372205 -0.3986431 1.1852415 -1.2962006 -0.5041454 -0.50948656 1.4145527 -0.30821022 0.3040708 -0.78917736 -0.72849154 -0.55538267 1.019801 -0.44085637 0.911871 -0.1545404 -0.79621714 -1.5571182 -0.8812967 -0.6795624 0.58887446 -0.036871005 -0.7488009 -1.2781054 0.30957475 0.9051006 -0.287456 -0.501629 1.1073453 -0.004747839 -0.8237442 0.5224778 0.14452612 0.40102333 -1.0592079 0.20499066 0.045732472 -1.9723783 -0.15282486 -0.8265116 -0.89967823 0.38498813 1.9671 -0.25513926 -0.07265208 0.6331861 -0.10320095 0.5221577 -1.1804124 0.8943167 0.6953995 -1.6626652 -1.435785 0.19871329 -0.19022365 -0.28887683
Sancerre -0.008700995 0.043615997 0.6085786 -0.21011975 -0.6399906 -0.43855575 -0.2830168 0.9489291 -0.70327866 -0.3208128 1.2296817 -1.308377 -0.43445507 -0.48685977 1.4412966 -0.32953143 0.30565152 -0.80386686 -0.75166416 -0.53728604 1.0159072 -0.40860975 0.89339334 -0.15128718 -0.7808267 -1.5674375 -0.89238924 -0.6778689 0.60387605 -0.028948024 -0.74255544 -1.2678533 0.29721728 0.8710986 -0.25837147 -0.5700178 1.1478015 0.008449549 -0.8095785 0.50856626 0.14159748 0.3862596 -1.0682638 0.21265174 0.030879928 -1.9694439 -0.15159197 -0.82278407 -0.8867507 0.3871847 1.9277314 -0.29340583 -0.077210955 0.64759547 -0.10175307 0.5218077 -1.1632699 0.90309876 0.70547223 -1.6661826 -1.4194772 0.2030655 -0.1929379 -0.27588755
ChateauMorgonBeaujolais 0.6726937 -0.5828311 0.23864153 0.4068357 -0.28561464 0.09266056 -0.07860212 0.24593408 -0.31954184 0.014918639 1.3181276 -1.6658558 -0.1509246 0.022653155 0.32202193 -0.9319474 -0.6145879 -0.74025375 -0.0033662699 -0.4756373 0.90044314 -0.3003295 0.31455928 -0.48097697 0.30494738 -1.4667814 -1.4524767 -0.63090783 0.19410957 -0.330789 -0.241952 -1.3064055 -0.5508396 -0.57411563 0.6475274 -1.0343028 0.3600546 -1.4917727 0.020195115 1.2898009 0.50267255 -0.6704738 -1.3143249 0.19331284 0.1034402 -1.7511706 0.283114 -0.7821958 -0.3941537 0.284685 1.2294492 -0.87324846 0.087370396 0.2719072 -0.19793008 0.015047255 -0.29011047 0.8796971 0.89104474 -1.005168 0.22893496 0.1500484 0.36419576 -0.29943413
Beaujolais 0.6862489 -0.6255716 0.25801262 0.42532942 -0.2912227 0.1596199 -0.061054487 0.19899252 -0.32269648 0.0049315565 1.3273048 -1.6425489 -0.11920945 0.02042619 0.23466189 -0.94665694 -0.63469505 -0.7539666 0.027750516 -0.45437226 0.88948685 -0.22445981 0.30507317 -0.5280093 0.3338912 -1.4879556 -1.4778817 -0.6734626 0.17239092 -0.32484198 -0.19509095 -1.3122982 -0.54392207 -0.5784408 0.6241124 -1.00453 0.37753883 -1.5281036 0.0066249263 1.2913098 0.4722757 -0.63859963 -1.28331 0.18552761 0.09541021 -1.702853 0.22753035 -0.8105529 -0.38675752 0.3263362 1.1962503 -0.8402991 0.081395276 0.20025311 -0.18770798 -0.021885145 -0.29236722 0.8399062 0.9132934 -1.0121204 0.25548267 0.15382488 0.37300736 -0.28182593
VintageYear 0.93611854 0.30479515 0.22978349 -0.25777107 -0.18061016 -0.19289671 -0.37298143 -0.06247007 -0.532651 -1.5598239 0.553409 -2.0844245 0.67527294 -1.462163 0.3289269 -0.883795 -0.4474624 -0.3860566 -0.10172842 -0.49359727 0.58588886 -0.17166011 -0.51114494 -1.027831 -0.45471802 -1.5878567 -0.57056916 0.35326692 0.44846973 -0.8078757 -0.27262887 -0.6348918 -0.19830859 -0.02081954 0.22417939 -0.5359137 0.44994056 0.13476 0.6182939 -0.2666858 0.3102757 0.20055525 -0.9708399 -0.6288697 0.14827868 -0.7225414 -0.7212303 -0.5025872 -0.75177354 0.6368425 1.1155416 1.6827922 -0.7707135 0.28784817 -0.58676696 0.2465439 -0.8583366 -0.97888845 0.280299 -1.2385943 -1.454804 -0.6744153 -0.0977561 -0.7792942
Year1998 0.9907666 0.3130843 0.1772733 -0.33332583 -0.19597237 -0.15816496 -0.37456283 -0.09947897 -0.47940737 -1.5925195 0.50630677 -2.0904045 0.6809791 -1.4526758 0.16866723 -0.9064827 -0.43440616 -0.39390332 -0.10233979 -0.47671914 0.55258524 -0.09500222 -0.51499516 -1.0467714 -0.46738586 -1.6046506 -0.60052043 0.3159139 0.46484807 -0.7944554 -0.30322284 -0.6957296 -0.17050645 -0.07780881 0.1835342 -0.53678095 0.43334898 0.12118189 0.6526869 -0.21283804 0.3165863 0.20885088 -0.9297436 -0.6587658 0.18493026 -0.72299683 -0.72058415 -0.47164237 -0.7083283 0.61565334 1.068464 1.7041274 -0.76926184 0.30400753 -0.53202623 0.2456139 -0.80041 -1.0377315 0.29973918 -1.1828264 -1.4629363 -0.6800838 -0.072164714 -0.71106327
CabernetFranc 0.65618134 -0.910265 -0.20029159 0.20149131 -0.9427959 0.3195745 0.27009165 -1.1699747 -0.72767 -1.5701628 -0.22048521 -1.259862 -1.0992128 -0.5760569 -0.63424927 -0.76056266 -0.56808084 0.28674364 0.5271484 -1.1350982 -0.068957776 0.37905896 0.13405693 -0.98841816 1.0089334 -1.3605477 -0.9240113 -0.559009 -0.75031525 0.031852666 -0.6637842 -0.19205804 -0.5857651 0.9942784 -0.28617412 -0.57616735 1.1170247 0.037475575 0.34305942 -0.14311656 0.9978304 -0.08429634 -0.21427779 -0.21891412 -0.57679915 -1.1084301 -0.4144291 -0.90345114 -0.86586976 0.2850004 0.9630914 1.5066109 0.11693525 -0.089389555 -0.57129693 0.23886275 0.15063347 -0.22635052 0.91187733 -1.2819686 -0.6731582 0.046636306 0.13079643 -1.1294471
WhitehallLaneCabernetFranc 0.6592827 -0.90377384 -0.20297843 0.21732813 -1.0003363 0.3788998 0.2967016 -1.1798713 -0.71283925 -1.586756 -0.21472317 -1.2725099 -1.1000674 -0.60282886 -0.6399432 -0.7947974 -0.5860782 0.30400726 0.5561964 -1.1681781 -0.087184176 0.4400372 0.11182875 -1.00408 1.0368477 -1.4025459 -0.9469516 -0.5996212 -0.71829116 0.0025551012 -0.70060253 -0.18712397 -0.545132 1.0127198 -0.3042723 -0.60377455 1.1357262 0.07443058 0.36439696 -0.16884737 1.0156842 -0.064611614 -0.22344884 -0.23309107 -0.5772138 -1.0911987 -0.43653616 -0.8987725 -0.89196247 0.29586783 0.949157 1.5519494 0.08040864 -0.070464894 -0.58781856 0.23126245 0.15545587 -0.2569534 0.9322654 -1.3291235 -0.72798586 0.014744462 0.1190478 -1.1269704
Margaux 0.7411246 -0.41591525 0.19376974 0.5891535 0.21165118 -0.07275809 -0.34443894 -0.23931712 -0.052132275 -0.38194427 1.242666 -1.7586422 0.93243057 -1.4278675 0.9856816 -0.6106108 -0.27647573 -0.6542237 0.09902525 0.31537363 1.4184375 -0.37875837 0.04691572 -2.0970004 0.24001664 -1.3794336 -1.4638544 0.49288666 0.23278753 0.05245772 -0.09575796 -0.62728983 -0.4125078 -0.26055202 0.6551852 -1.0499042 0.82891273 -0.98674476 0.24219938 0.38288942 -0.44973776 -0.07904205 -1.1140802 0.02415358 -0.03486444 -0.8694061 -1.1530677 -0.54158497 -0.51105803 0.606186 0.90040934 0.84723324 -0.34169024 0.6465565 0.106222995 0.08647406 -1.0957791 -0.21084724 1.1258115 -0.94165313 -0.12181872 0.22058323 0.31440562 -0.23824391
ChateauMargaux 0.7479237 -0.420381 0.11250144 0.5386009 0.21463136 -0.011328895 -0.2998837 -0.29201898 0.0009915924 -0.39690664 1.1912929 -1.791181 0.94771314 -1.4378242 0.8853779 -0.6500988 -0.25998744 -0.67331207 0.071917064 0.32664368 1.4257061 -0.31389588 0.048877466 -2.1203465 0.22334498 -1.397725 -1.4383292 0.483618 0.24150491 0.05780629 -0.14136285 -0.68294716 -0.39243042 -0.33098972 0.678663 -1.058927 0.906551 -0.9848444 0.2763894 0.40603903 -0.4631978 -0.08395812 -1.0963782 0.029698359 0.032261785 -0.87279844 -1.1587658 -0.5321802 -0.49681312 0.6044908 0.81234777 0.83984935 -0.338647 0.5947693 0.14364302 0.07222897 -1.1032008 -0.23879836 1.1831933 -0.9236834 -0.08119271 0.19495541 0.36629403 -0.2148291
CotesDOr 0.9192144 0.32468113 0.020669943 -0.7650311 0.22260591 -0.8085655 -0.30133376 0.22060533 0.58070755 -0.07107388 1.1653454 -2.2776027 0.6661013 -0.45067635 1.2039887 -0.35423318 0.6974452 -0.84028864 -0.9292556 -0.2661396 0.9684658 -0.3828527 0.34682047 -0.68290246 -1.3950176 -1.9322748 -0.58373284 0.2603366 0.6807664 -0.5436302 -0.7135485 -1.6024233 -0.55293113 0.2787977 0.13454576 -1.2817607 0.6740243 -0.051435664 -0.0543625 0.22319101 0.042579323 0.36367065 -0.99534255 -0.48183084 0.22574884 -1.8027807 -0.31477872 0.121240035 -0.31561 0.101414196 1.2616805 0.70169514 0.14518282 0.8302289 -0.16696742 0.47195387 -1.128333 1.1789834 0.8095098 -0.37438285 -1.4542283 0.5937981 -0.22394705 0.21695252
ClosDeVougeotCotesDOr 0.9248317 0.320896 0.03538418 -0.7420618 0.25797525 -0.8035411 -0.34007967 0.23115854 0.5857572 -0.07874337 1.1925861 -2.2944531 0.6905942 -0.47916275 1.1903787 -0.3585386 0.6829144 -0.85198265 -0.9488074 -0.2520379 1.0019016 -0.399325 0.32453603 -0.69845235 -1.3915437 -1.9238331 -0.58731043 0.2878722 0.6497893 -0.53596723 -0.69049 -1.6014249 -0.5520095 0.23651342 0.14924891 -1.2862101 0.6706787 -0.08257564 -0.06003302 0.23810075 0.06154198 0.35827276 -1.0095983 -0.4402721 0.22056581 -1.7961364 -0.3214542 0.10812713 -0.29613948 0.11129423 1.280411 0.7242961 0.09955305 0.82168883 -0.15997511 0.47822973 -1.1558756 1.1122879 0.78100413 -0.3749875 -1.4454087 0.5823108 -0.24008289 0.20464061
StEmilion 0.8168068 -0.77244985 -0.26623288 -0.16980985 -1.2467675 -0.5233045 0.39029118 -0.61220974 0.0059953197 -0.5822942 0.41249612 -1.7411627 -0.40943542 -0.37816125 0.8731722 -0.062197194 0.21758737 -0.63805443 0.16437517 -0.3784729 -0.25152093 -0.043921307 0.43843725 -0.8642404 0.39525896 -1.729481 -1.2771071 -0.37348408 0.7150147 -0.82015836 -0.45247212 -0.77186894 -0.7373775 1.057265 0.039686758 -1.0494347 0.55337447 0.5750057 0.016981767 0.51151156 0.5128048 -0.17061359 -1.0797156 -0.6439008 -0.41274625 -1.7642479 -0.13879128 -0.4096486 -0.86578655 -0.13868083 1.161697 0.9706471 0.49484685 1.2466106 -0.19784798 0.4519866 -0.21189778 1.3204974 0.9518319 -1.4223269 -0.8672259 0.082206324 0.41094762 -0.17604774
ChateauChevalBlancStEmilion 0.8234488 -0.78189206 -0.3103862 -0.17188203 -1.27405 -0.42213446 0.37563398 -0.65254444 0.06782856 -0.5497971 0.39031616 -1.7478222 -0.3961704 -0.38673878 0.880812 -0.10005783 0.20020288 -0.6429611 0.11208606 -0.3473284 -0.2568958 0.019190922 0.385371 -0.8746915 0.4347661 -1.7490928 -1.2726133 -0.3898054 0.7112107 -0.8051335 -0.4565235 -0.75744295 -0.7159206 1.0151572 0.03404686 -1.1150773 0.64021206 0.6040678 0.024083953 0.5687265 0.5397017 -0.19868939 -1.103948 -0.5931732 -0.41435313 -1.7701108 -0.14582036 -0.41627955 -0.81528383 -0.16971481 1.1246759 0.97450995 0.47224134 1.2990171 -0.17502078 0.45840192 -0.22156201 1.2896484 0.99032325 -1.4437761 -0.86024934 0.051622298 0.4331699 -0.16536932
CorbansDryWhiteRiesling 0.9493263 -0.64208406 -0.49153787 0.70563805 -0.9568699 0.61691844 0.17792702 -1.4438424 0.39317238 -1.2066528 -0.029834753 -1.4456594 0.56445724 -1.2010324 -0.23441227 -0.8885231 -0.72726125 -0.08734568 1.1783844 -0.7083046 0.054756556 0.58816224 -0.4908762 -1.9052796 1.4670144 -1.3563478 -2.1535382 -0.1569388 0.08513236 -0.29671857 -0.4743103 -0.5630469 -0.3439623 0.25039446 0.01759133 -0.99948204 0.347622 -0.2702022 0.96421766 0.7927414 0.6464271 0.03759975 -0.79383546 -0.35115254 -0.5140918 -0.6549611 -0.55878216 0.048856195 -0.73909634 -0.06129708 0.37164548 1.5106447 -0.11193425 0.89574385 -0.10952308 -0.32051906 0.16946149 -0.32237515 0.61324006 -0.9673192 -0.2110032 -0.25385156 0.16918927 -0.0744373
Riesling 0.94877857 -0.6351485 -0.5005773 0.7596967 -0.96396196 0.6211803 0.19298698 -1.4397995 0.39784655 -1.2093436 -0.022566233 -1.395007 0.5662752 -1.1452202 -0.23578364 -0.8992661 -0.73826784 -0.08190983 1.2601926 -0.7180435 0.036128838 0.6120556 -0.4844948 -1.8946135 1.5022801 -1.3350915 -2.1744995 -0.1879516 0.07633711 -0.30721945 -0.45754495 -0.56674105 -0.3138318 0.27084178 -0.017579256 -0.9697891 0.32242453 -0.30581114 0.9655317 0.8204641 0.64803594 0.05854009 -0.8028021 -0.36093074 -0.5304132 -0.6346643 -0.54338473 0.0632791 -0.78930247 -0.058553442 0.38489583 1.445582 -0.04600365 0.8825465 -0.12771793 -0.3638222 0.16921431 -0.28482246 0.5786314 -0.95977426 -0.21121179 -0.2744989 0.15450364 -0.052965645
ChateauLafiteRothschildPauillac 0.0041649817 -0.001670251 -0.098087475 0.5144275 -0.09873618 0.6192588 -0.544222 0.7391677 0.29381192 0.94071984 1.5514688 -1.7390541 1.0558674 -0.7696932 1.517456 -1.1245269 -0.3568436 -0.8874113 -1.0739142 0.012538468 0.9237451 -0.35722595 -0.33478272 -0.81989384 0.2538214 -1.1451452 -1.0058064 -0.011745904 0.52097744 0.09335419 0.19672784 -0.57389396 0.16517276 -0.9645763 0.9681572 -1.7945428 0.9102742 -0.10973957 0.13244408 0.58855456 0.5526611 -0.52054054 -1.3612252 0.6926723 -0.093711056 -1.239369 0.13522266 -0.6522748 0.058101475 0.19381149 0.5759262 -0.10248451 -0.8021851 1.211757 0.452257 0.12094395 -0.75991994 -0.3856503 0.36884105 -1.267176 0.0059963292 -0.44642848 0.3432622 -0.17379472
Pauillac -0.013547696 -0.038075496 -0.14994337 0.52487725 -0.10208731 0.6659316 -0.5170835 0.6779803 0.3001461 0.93716186 1.5227199 -1.7239562 1.0485396 -0.77576625 1.465667 -1.1334802 -0.3561953 -0.8451466 -1.0543896 -0.0012905633 0.91709524 -0.3251445 -0.3309531 -0.8863258 0.30346355 -1.1370091 -1.0527389 -0.062635176 0.5000535 0.12607573 0.20761211 -0.59609205 0.19101034 -0.98512554 0.9502921 -1.813076 0.96435195 -0.110420235 0.1490477 0.609761 0.56634855 -0.49752983 -1.3582367 0.70703787 -0.0876062 -1.2431026 0.11885861 -0.66678584 0.09487833 0.16433285 0.53617835 -0.08441495 -0.76242536 1.2016288 0.492645 0.10099526 -0.7432266 -0.39567435 0.38513324 -1.2684681 0.04113828 -0.4353103 0.37848955 -0.15815888
Meritage 0.27331972 -0.3121012 -0.470721 0.6593103 -0.49718288 1.0944934 -0.6132911 -0.5921054 -0.09418526 -0.38538718 0.13566981 -0.37443858 0.3750524 -1.0837133 0.29434082 -1.3805627 -1.1261274 0.70837164 0.6365281 -0.5545614 0.30345637 0.39133346 -1.0121348 -1.5760236 1.2038224 -0.17319664 -1.2903318 -0.33614615 -0.7348562 0.6472046 0.11520963 0.35178718 0.7560579 -0.5850437 -0.2043025 -1.2391278 1.3071303 -0.23464121 0.28340346 0.41376436 1.0163817 0.018121727 -1.4032629 0.55800384 -0.6308525 0.013901224 -0.4530655 -0.8375002 -0.38275662 0.24496259 0.60127574 1.2508504 -0.530932 1.1294854 0.02384359 -0.58304733 -0.10094999 -1.281696 0.025250154 -1.3997638 -0.8628281 -0.8297478 0.18709776 -0.6070427
KathrynKennedyLateral 0.263504 -0.30458382 -0.4510338 0.6523035 -0.48144415 1.1258119 -0.6112359 -0.5913711 -0.13345245 -0.42245087 0.122970946 -0.35560465 0.3784215 -1.0701628 0.27935863 -1.4263856 -1.1447537 0.73751354 0.6393541 -0.5979149 0.31151512 0.44197354 -1.0223225 -1.5700104 1.1667379 -0.18654867 -1.2840366 -0.36920303 -0.72921807 0.6482652 0.10717479 0.35275474 0.79788 -0.55647105 -0.24369258 -1.2265953 1.3353614 -0.24147394 0.29603714 0.38188946 1.0230436 0.046952307 -1.3708147 0.54548675 -0.63260895 0.026631642 -0.43079582 -0.8528004 -0.41254237 0.26321176 0.58927 1.2703484 -0.51754665 1.0748037 -0.011676288 -0.62528527 -0.09393605 -1.2789413 0.0063393186 -1.4016632 -0.9170548 -0.8258092 0.19211657 -0.5891281
RoseDAnjou 0.32154974 -0.7943272 -0.38446212 0.542627 -1.3043089 1.0092953 -0.27133828 -0.35671908 0.23735859 -0.016657263 0.36285675 -0.2665467 -1.059499 -0.48568818 0.39480084 -1.3174121 0.17654197 0.7932598 0.21365708 -1.1569496 -0.24099234 0.21735688 -0.33540168 -0.062435456 0.96893805 0.26787722 -0.5049626 -0.66629255 -0.7907285 0.87214696 0.13605057 -0.06520183 0.9609002 0.17462914 -0.23036332 -1.5820531 0.38126242 1.1815894 -0.46760458 -0.46233988 1.9617856 -0.22686529 -1.0924442 0.6906177 -1.4281899 -1.6059924 0.27906054 -0.550603 -0.35254624 -0.41307265 0.9103468 0.9035217 -0.08960193 0.9319139 -0.17522925 -0.81216574 0.0851817 -0.50367326 -0.13480939 -1.3767642 -0.8314218 -0.80646014 -0.31002438 -0.4899625
Anjou 0.28545415 -0.8051201 -0.3857631 0.57674295 -1.2872422 1.0757437 -0.28881305 -0.34942162 0.2110005 0.012404162 0.39180076 -0.26260155 -1.0905424 -0.4578001 0.3676926 -1.3088815 0.09763312 0.7984157 0.17423722 -1.1614643 -0.19997564 0.220798 -0.32975978 -0.087196015 1.016859 0.22199085 -0.53102714 -0.71622497 -0.8216386 0.8869953 0.1430772 -0.049008146 0.9560516 0.16328473 -0.24050513 -1.5845345 0.43225157 1.12259 -0.46115217 -0.39162293 1.9806756 -0.25314352 -1.089854 0.7581689 -1.4298261 -1.5964417 0.2996165 -0.5983555 -0.3339602 -0.36267534 0.8943504 0.853519 -0.10692064 0.9287243 -0.17497902 -0.8013636 0.093413375 -0.4724135 -0.12826747 -1.3804048 -0.8079206 -0.8123623 -0.28567204 -0.49852568
FoxenCheninBlanc 0.07074053 -0.12994707 -0.67524064 -0.20118292 0.08594982 0.98970354 0.601291 -2.0110056 -0.12317171 -0.48102 -0.09224051 0.17990972 0.034637846 -0.70021755 -1.4857806 -0.8250304 -0.19867495 0.9934435 0.9298631 0.23338644 0.9873144 0.23481454 -0.61409533 -1.4726608 1.0478932 0.11762548 -1.0441611 -0.51739985 -0.35044238 0.4828247 -0.6370579 -0.21827967 -0.20657565 -0.55738825 0.371018 -0.16964686 1.4080089 0.2459103 1.1043953 0.047244266 0.41120183 0.20998071 -0.43402374 0.10786255 0.24107556 0.18231834 -1.1682862 -0.050914366 -0.40614444 -0.2749218 -1.0451503 -0.36114684 -0.2268559 -0.5682489 -0.85624367 0.31169903 -0.5476539 -0.8753517 0.023334134 -0.63181704 -0.062202748 -0.44955233 0.37662262 -0.8021043
KalinCellarsSemillon 0.5407375 -0.14296933 -1.2394619 0.12272919 0.36690557 0.9899833 0.75877553 -1.8376079 1.0148414 0.24435908 0.23449738 -0.91945106 0.17106082 0.34399676 -1.2200912 -1.2060902 0.59488887 -0.073672265 -0.00022550319 0.3331109 0.5939385 0.5736794 -0.64091593 -0.82218945 0.54377043 -0.50652814 -0.59883076 -0.53040504 -0.09711481 0.32503533 0.27510867 -1.1059657 -0.39369494 -0.22175843 0.4994409 -0.9913365 1.0378286 0.66411716 1.2086685 0.45953652 1.0309243 0.04603866 -0.18738808 0.25551492 0.032167394 -0.71655965 -0.13015701 0.3948239 0.40575266 -0.21818031 -1.2522528 -0.3404527 0.4063424 -0.59112734 -0.36225316 -0.047716476 -0.73180264 0.03569689 -0.12094728 0.11781114 0.4181381 -0.36382768 0.9580728 0.35046118
GaryFarrellMerlot 1.2427695 0.033760343 -0.9977399 0.18587647 0.7086381 0.37673655 -0.07719839 -2.1224287 1.0253178 -0.682782 0.087763935 -1.2466351 0.5484679 -0.6630747 -0.8179877 -1.1081322 0.40101218 0.28883722 0.84793913 0.14164808 0.93888056 0.39584503 -1.3619475 -0.7558542 0.30949053 -0.098358914 -0.80246454 0.59682 -0.5603477 0.7778149 0.101345815 0.03684321 -1.4059944 0.047485888 0.5687545 -0.35274002 0.1776303 0.81089 1.2351661 0.11039969 0.6848917 -0.100733586 -0.84624743 -0.6419917 0.24363372 0.08764849 -0.70456576 0.41643238 -0.2652194 -0.5249461 -0.67546326 0.5645816 -0.09465438 -0.055466495 -1.0652012 -0.00999565 -0.6780746 -0.9403078 -0.4865806 -0.090921454 0.07492397 -0.49221355 0.22976615 -0.36631164
MariettaPetiteSyrah 0.11991211 0.46226236 0.13080992 0.3298497 -0.4952344 1.0914584 -0.042752143 -1.7871231 0.19758505 -0.71514875 0.064183675 -0.6824246 0.33555758 -1.3496596 -0.45847616 -0.24862714 -0.7976449 1.3696656 0.9916548 -1.1120948 0.15528798 0.40182233 -0.86025095 -0.5343368 0.19317031 -0.0040394757 -0.62193114 0.17760806 -1.2283368 0.23258784 -0.2873996 0.4977897 -0.578134 0.29211095 -0.38495734 -0.03490248 0.49334678 0.53815234 1.0510155 -0.29355383 1.3623325 0.6738992 -0.9018273 -0.7005367 -0.6979436 0.37718135 -0.77998066 0.2515045 0.27755785 -0.33220398 -0.8842827 0.6351582 -1.149246 -0.20255616 -0.7879368 0.39203942 -0.04811431 -1.6320901 0.4514543 -0.14106663 0.6011745 -0.081476755 -0.12604578 -0.8981294
ItalianWine 0.4526282 0.67593324 -0.72911245 0.38494396 -0.18039358 -0.3103723 0.9762594 -2.0645974 1.1600713 -1.1294874 -0.32301447 -0.9439375 -0.25415024 -0.33099857 -1.0741413 -1.5282831 -0.32021555 0.6199098 1.349482 -0.68860847 -0.13762778 -0.42480627 -0.5294155 -0.85373986 0.5086204 -0.15834333 0.042928085 -0.0331921 -0.49273312 -0.12859945 -0.24944584 0.2086256 -0.01635359 -0.1221837 0.23741287 -0.7584367 0.7444283 0.31744656 1.3179168 -0.100313775 1.2194887 1.1807785 -0.09646621 -0.17255469 -0.17367046 0.32574233 -0.45694375 0.81543267 -0.49787354 -0.06522753 -1.0952703 0.38062298 0.07419909 -0.3295739 -1.3771702 0.1781498 -0.10843224 -0.61945033 -0.5291291 0.21821499 -0.04384206 -0.4796049 -0.37824494 -0.43074185
CortonMontrachetWhiteBurgundy 0.5466782 0.40093905 -0.2114773 0.12384893 -0.44680423 0.5527699 0.5567358 -1.1451806 1.1751941 -0.35794958 0.60971 -1.6805248 0.48998344 -0.65740156 -0.58734226 -1.1939923 -0.54382855 -0.04522788 0.05413074 -0.9056644 0.07606558 0.35330996 -0.1070499 -0.6405994 -0.22197278 -0.7364242 0.21435405 0.18494521 -0.44358155 -0.58042437 0.47588202 -0.2184302 -0.112408504 -0.19049376 0.117842786 -0.89868 0.64654255 0.23258309 1.2846429 0.19131695 1.4506714 0.7828947 -0.5349682 -0.046340883 -0.617814 -0.4489588 -0.1000788 0.7530173 0.67148954 -0.33556852 -1.5660646 0.6143982 -0.09396084 -0.68009996 -0.5445557 0.21985537 -0.4694479 -0.9329827 0.2694989 0.60481375 1.0523078 -0.08554132 0.15556122 0.11608476
TaylorPort -0.07976208 0.016135877 -0.34186968 -0.2054579 -0.49885336 1.7946099 0.45527717 -1.4589268 0.19439529 0.14937826 0.6848173 0.05352198 0.41366503 -0.8298126 -0.91873825 -0.35692683 -0.39792496 1.0457001 0.48851353 -0.30169627 0.42755607 0.8433691 -0.25754222 -1.043817 0.0074570975 -0.04249641 -1.4388888 -0.31429982 -0.5696778 0.14123866 0.40355486 -0.84133846 -0.077064484 -0.7737941 -0.32316884 -0.64569443 0.8405879 0.0011254735 0.4939722 0.41209462 0.64577484 0.39701685 -0.9380789 -0.03278443 -0.198468 -0.3493372 -0.679733 0.10619458 1.0300798 -0.6481949 -1.1178203 -0.19680978 -0.65543 -0.0068043037 0.27123797 -0.14777628 -0.35977134 -0.8326161 0.9174832 -0.012859497 1.277663 0.07406405 0.5425885 -0.061173882
RedWine -0.15757476 -0.12219841 -0.38049582 -0.16855876 -0.46308354 1.88217 0.36283278 -1.4046274 0.2783199 0.25468025 0.754277 0.14512059 0.45563355 -0.8612233 -0.8414515 -0.40015906 -0.3716065 1.0201006 0.38380024 -0.2544302 0.4601954 0.8527324 -0.44162107 -0.9893325 0.09326681 0.05492178 -1.3940759 -0.27626538 -0.73272127 0.26403707 0.43910387 -0.71237266 0.12228107 -0.7352774 -0.22685657 -0.59364676 0.8461006 0.1832461 0.5212739 0.43370044 0.76094323 0.32975736 -1.085926 0.056453045 -0.31099668 -0.23177557 -0.6759535 0.08083162 0.95793253 -0.58217746 -1.155207 -0.14913645 -0.68819845 -0.008619802 0.34651932 -0.21255206 -0.31278008 -0.94208205 0.6863073 -0.09697411 1.2635216 -0.049666025 0.628787 -0.028820017
PulignyMontrachetWhiteBurgundy 0.54089504 0.39265463 -0.23339182 0.14460845 -0.4879986 0.57914937 0.52787656 -1.1053277 1.2142539 -0.33033866 0.55436814 -1.6721376 0.45393226 -0.6545022 -0.5753807 -1.186046 -0.50075954 -0.038284197 0.07112319 -0.9390445 0.08306295 0.36912152 -0.090338826 -0.5760537 -0.18914443 -0.70395976 0.19397227 0.17234239 -0.4613404 -0.4974018 0.39229563 -0.1966218 -0.13491789 -0.17736696 0.10831661 -0.8961696 0.6516792 0.23480275 1.2316087 0.18315351 1.4406441 0.74734175 -0.5159741 -0.034731615 -0.5921974 -0.4536527 -0.07677205 0.7439591 0.62523925 -0.34586576 -1.5529678 0.5756399 -0.10283691 -0.6543614 -0.5444138 0.21392728 -0.39181626 -0.92872584 0.29314208 0.57540375 1.0724974 -0.042533685 0.15148543 0.14014241
SeanThackreySiriusPetiteSyrah 0.1364087 0.4713743 0.14633018 0.34238568 -0.43046677 1.0494032 -0.103922255 -1.7381372 0.19738035 -0.72283524 0.02294675 -0.75363785 0.2807636 -1.3504322 -0.477853 -0.28517348 -0.79490244 1.377334 1.0115465 -1.1329858 0.14361998 0.34344947 -0.8408148 -0.5224815 0.23255551 -0.019461906 -0.55782974 0.18387331 -1.3203523 0.27635962 -0.29766414 0.47414494 -0.54743105 0.2689371 -0.38685542 -0.014137323 0.46607083 0.5265701 1.0348063 -0.2290745 1.4291131 0.6094887 -0.87294096 -0.6498718 -0.7006828 0.33261943 -0.76079255 0.2249161 0.267751 -0.3120724 -0.8678578 0.63746256 -1.1258354 -0.18138453 -0.72070485 0.44935638 0.008491956 -1.63919 0.45046157 -0.12827103 0.60998344 -0.10725896 -0.13833626 -0.89598
ChiantiClassico 0.463112 0.6770487 -0.7539414 0.41102585 -0.2012469 -0.26661873 0.92484486 -2.0079281 1.1844628 -1.0986185 -0.3477914 -0.9649312 -0.27789977 -0.3265458 -1.0615783 -1.52562 -0.2855655 0.6078784 1.352646 -0.7232944 -0.11843908 -0.40973738 -0.5512918 -0.80222744 0.51420426 -0.14761543 0.04395433 -0.0363198 -0.51245004 -0.04951537 -0.31672192 0.2239396 -0.029105594 -0.10207035 0.21856436 -0.7684504 0.7191914 0.30620527 1.2883115 -0.11787551 1.2278812 1.1487279 -0.10420034 -0.16960998 -0.15700611 0.3161484 -0.43644404 0.8098839 -0.5413826 -0.05302637 -1.0405254 0.3915636 0.03388323 -0.30078915 -1.3653125 0.17955928 -0.04767676 -0.6374501 -0.50936806 0.16334912 -0.084681295 -0.4781767 -0.39839208 -0.41161847
LongridgeMerlot 1.2171304 0.05871721 -1.0057484 0.16466613 0.7194291 0.39202455 -0.103921585 -2.0836892 1.0470272 -0.6835078 0.053890698 -1.2815665 0.5063532 -0.69415236 -0.775621 -1.1167773 0.42190355 0.3201778 0.85155755 0.15952341 0.97683805 0.3473707 -1.3246557 -0.7363775 0.2971852 -0.08953412 -0.7315455 0.64248 -0.6027121 0.7812706 0.046851225 0.047182277 -1.3621144 0.015259737 0.5902762 -0.37315872 0.21926147 0.812042 1.1972414 0.09572237 0.6984648 -0.12048851 -0.8164061 -0.5993516 0.2746277 0.07169994 -0.7370801 0.41629964 -0.28040865 -0.554264 -0.6748451 0.5769354 -0.10212805 -0.0076503484 -1.015698 0.041942418 -0.6667813 -0.9712252 -0.44932365 -0.093414575 0.08072955 -0.47588533 0.17990153 -0.367994
CongressSpringsSemillon 0.5709948 -0.14739688 -1.2463604 0.11370656 0.38309282 0.9686185 0.71459 -1.8166534 1.036062 0.23847596 0.20169406 -0.9437782 0.15599132 0.34652957 -1.2166237 -1.211725 0.58868957 -0.08476613 -0.02156429 0.319805 0.601602 0.5680764 -0.6577875 -0.80971324 0.5524947 -0.5058952 -0.56859976 -0.5109344 -0.12786357 0.35370874 0.2679715 -1.0685475 -0.40560454 -0.22234419 0.47059837 -1.0094328 1.0427114 0.6502776 1.197566 0.4965476 1.0469296 0.019379541 -0.19146183 0.27977222 0.032219313 -0.7173827 -0.09807453 0.4049687 0.4022138 -0.20903458 -1.2410966 -0.29193115 0.4193252 -0.56651443 -0.36881593 -0.05074275 -0.70577484 0.035711966 -0.13624771 0.12439975 0.38823304 -0.36007643 0.9493234 0.3570326
VentanaCheninBlanc 0.07577158 -0.1183345 -0.7201341 -0.17237431 0.015360547 1.0233365 0.61174405 -2.0078785 -0.036397148 -0.5399907 -0.18967691 0.1248551 -0.027720813 -0.70978904 -1.453087 -0.8196004 -0.21744965 0.988322 0.9173705 0.15011284 0.94400805 0.2595887 -0.57569337 -1.4332855 1.0862495 0.12924565 -0.9555922 -0.5194779 -0.35858282 0.50524116 -0.7226168 -0.14607361 -0.19310255 -0.52257884 0.35268635 -0.18202691 1.4568101 0.2705054 1.1154681 0.050209638 0.46538833 0.2043976 -0.41226906 0.13213898 0.23904859 0.16124228 -1.1169909 -0.040543374 -0.4400407 -0.29496858 -1.0806346 -0.29873437 -0.2000676 -0.5577748 -0.8579311 0.29485655 -0.51631135 -0.8791532 0.067649886 -0.6504232 -0.023614174 -0.476689 0.36037013 -0.8024981
MountadamPinotNoir 0.76405644 -0.8350861 0.1789562 -0.027515639 0.21040174 0.14013922 -0.5884796 -1.3605878 -0.35166526 -0.44962728 0.46706453 -0.6425153 0.47971818 -0.7681045 -0.63952494 -1.0673782 -1.0203416 0.5033083 -0.0950652 -0.31821114 0.5211689 -0.40452087 -0.7508382 -1.3555294 0.54305786 -0.13156377 -1.1411326 -0.12877691 -0.873819 -0.035711598 1.1097935 -0.31027037 -0.7716198 -0.64258385 0.52101016 -1.2103759 0.22308962 -0.54664236 0.4352899 0.054803975 0.64881843 0.20596462 -0.85574776 0.28618088 -0.7971853 -0.28499657 -0.011027613 -0.29115185 0.6361413 -0.08231104 0.19304942 1.5358826 -0.2523341 -0.6579354 -0.7990557 -0.50848675 -0.54577225 -0.7127833 -0.75979215 -0.013634989 -0.38621008 -0.1483655 0.04339659 -0.63648224
SaucelitoCanyonZinfandel 0.3664593 0.8419693 0.37391296 -0.54594654 0.8581522 -0.5683065 -0.23133872 -0.55131066 0.76817775 -0.18290995 0.81730026 -1.1429517 0.1731452 -0.67742234 -0.044352133 -0.99504685 0.48250774 0.49058706 0.13144419 -0.33480883 1.5658512 -1.4230015 -0.03213633 0.14982888 -1.4788393 0.050305422 0.31333083 0.7328345 -0.7378081 0.4632697 -0.35045385 -0.328831 -0.6584995 -0.52265954 0.6541404 -0.48294124 0.24559733 -0.37727258 0.21792038 -0.62386173 0.28808722 0.792364 -0.6340692 -0.16560641 0.49962994 -0.049989622 -0.6810017 0.554918 -0.0748011 -0.20990394 -0.29743955 -0.500339 -0.75592506 -0.86284196 -1.2476518 0.9056695 -0.5830109 -0.86489975 -0.38341874 0.5988318 -0.13781779 0.6332998 -0.6224889 -0.43733582
SelaksSauvignonBlanc -0.11756371 0.2909931 0.29784054 -0.65693444 0.5923837 -0.64348567 -1.1425469 -0.5779991 -0.19076994 0.8031207 1.1014961 0.37260452 0.7120295 -0.73671764 0.29624084 -0.037220206 0.045787383 0.8117717 -0.11856372 -0.6301335 0.9139129 -1.0957218 -0.5633175 -0.52988267 -1.1731317 0.73642075 -1.1782992 0.40386495 -0.39997 0.496676 0.5519132 -0.61379284 -0.5996655 -0.5752443 0.08357805 -0.7553036 -0.53065115 -0.16772628 -0.012412027 0.23403458 0.1670592 0.82846 -1.9749471 0.022988128 -0.809492 -0.17940865 -0.038524356 0.64320874 0.61879444 -0.47980976 0.7298318 0.20419382 -0.56591344 0.22963876 -0.35814998 -0.0016134405 -0.8972321 0.05107697 -1.0548472 0.43198672 -0.73226595 0.08950802 -0.20072591 -0.06607594
MountEdenVineyardEstatePinotNoir 0.74664986 -0.867906 0.16848852 -0.010105672 0.23614883 0.20974484 -0.53902316 -1.3341657 -0.38925755 -0.41312113 0.5639711 -0.6181281 0.48959273 -0.7402794 -0.65897495 -1.1110095 -1.0504817 0.48175952 -0.09767938 -0.28076854 0.5644142 -0.38776612 -0.7422549 -1.367212 0.53355473 -0.13201849 -1.1481137 -0.1681481 -0.85918057 -0.031910803 1.1717384 -0.3544571 -0.74616003 -0.6661579 0.5509372 -1.2057776 0.23458357 -0.5639604 0.44187045 0.05330318 0.66504866 0.18502262 -0.8623326 0.29929647 -0.787206 -0.2987843 -0.013755615 -0.33171418 0.66148627 -0.08130757 0.17762539 1.4476868 -0.21264727 -0.7129872 -0.76858544 -0.50603324 -0.5861093 -0.7429866 -0.7691826 -0.006883976 -0.34341395 -0.18206513 0.072643176 -0.6509179
SantaCruzMountainVineyardCabernetSauvignon -0.22963504 0.6623354 -0.36912608 -0.17959546 0.47167495 -0.089780204 0.28904685 -1.5578374 0.35759017 0.6113639 0.82657653 0.42989725 0.038452618 0.064736135 -0.5581679 -0.43185067 0.34740072 1.2168279 0.56475407 -0.4657321 0.6196628 -0.48911184 -0.4354108 0.21643369 -0.62662864 1.1713173 -0.07565504 -0.16170526 -0.7388386 0.46078208 0.63663846 -0.4108856 -0.3895651 0.015907114 -0.026849305 -0.18592057 0.1446917 1.0166513 0.58874005 -0.25173134 1.1223913 1.0034328 -0.8258672 -0.1684007 -0.6367573 -0.16535746 -0.096905276 0.8405239 0.73330414 -0.73019105 -1.0774759 -0.9993274 0.240423 -0.8212128 -1.0450262 0.057118613 -0.91422427 -0.068745255 -1.0792233 0.8364409 0.29101986 -0.15228328 -0.16100134 -0.27928093
ElyseZinfandel 0.416902 0.76113886 0.41627234 -0.6921713 0.769573 -0.58285373 -0.16494885 -0.55507886 0.72907704 -0.1961136 0.85888845 -1.1045328 0.2539361 -0.74116194 -0.11873634 -1.0045538 0.5300703 0.40135273 0.06586093 -0.2917328 1.5892212 -1.3164674 0.10970717 0.07662311 -1.5131315 -0.059273977 0.1834488 0.68698245 -0.58481133 0.3361717 -0.3414686 -0.43924198 -0.672081 -0.5659237 0.6925952 -0.45972925 0.24371654 -0.43928126 0.23333143 -0.63821673 0.18763272 0.82331866 -0.63800436 -0.23543449 0.4901107 -0.12691978 -0.72074956 0.55636615 -0.06535597 -0.2434717 -0.32806084 -0.54442257 -0.7364507 -0.9248431 -1.215579 0.92146444 -0.6063704 -0.8388199 -0.27320635 0.62441933 -0.07651204 0.7279329 -0.5168917 -0.370352
CorbansPrivateBinSauvignonBlanc -0.07493211 0.22017199 0.3804742 -0.7981089 0.47425506 -0.6857738 -1.0675724 -0.60886467 -0.3032979 0.7408764 1.130979 0.43169966 0.7396345 -0.8100976 0.25660005 0.013129086 0.067936175 0.76293314 -0.20021324 -0.60258234 0.96928525 -1.032419 -0.41600823 -0.5667757 -1.2266175 0.64239883 -1.2854521 0.38080576 -0.25394493 0.3482063 0.510372 -0.6644205 -0.6663634 -0.5362783 0.11578728 -0.6970468 -0.52091205 -0.21843122 0.05100923 0.170602 0.065624215 0.8337217 -1.9788826 -0.08781295 -0.84195936 -0.2359563 -0.08952893 0.66079456 0.5926417 -0.5294309 0.69528407 0.1659153 -0.57045406 0.1429127 -0.40531492 0.04370264 -0.9439464 0.066415004 -0.9236272 0.41759714 -0.70241874 0.23162082 -0.12852867 -0.057755586
LaneTannerPinotNoir 0.78696394 -0.8617 0.23856416 -0.13406755 0.18969494 0.20557463 -0.52401423 -1.38772 -0.44635227 -0.47303304 0.55666625 -0.59796435 0.52901036 -0.7949491 -0.73310596 -1.0697985 -1.0241697 0.4893591 -0.10761979 -0.30488774 0.53879637 -0.29256466 -0.7251771 -1.4077741 0.46130666 -0.22244112 -1.2253556 -0.1337633 -0.8068394 -0.12756814 1.1302363 -0.38905513 -0.79767805 -0.6810354 0.5240207 -1.1492201 0.21123631 -0.575772 0.5195005 0.05339522 0.6237289 0.22432473 -0.91903967 0.18965805 -0.7984731 -0.29084393 -0.079689495 -0.30718276 0.6394092 -0.1003711 0.15853094 1.4772944 -0.27451435 -0.71418005 -0.7845047 -0.4645311 -0.60641974 -0.7172756 -0.66768664 -0.033064146 -0.33891895 -0.11291581 0.12262733 -0.62407035
FormanChardonnay 0.42915848 0.73415154 -0.23290092 0.16920757 0.5238092 -1.2071866 0.040146276 -1.0397414 0.25589067 -0.13557848 0.7590627 -1.5276659 0.45212665 0.097349785 0.8196639 -0.3288029 0.59138364 -0.1588712 0.18442294 0.11920581 0.42720124 -0.8345159 -0.42787877 -0.28034365 -0.42392468 -0.23520271 -0.16205938 0.7692429 0.16541743 -0.95277023 0.65058047 -0.6829971 -0.85772634 0.7466322 0.56413245 -0.5741901 -0.1383873 1.2001041 1.1831874 0.14935966 1.067051 0.18686399 -0.7626043 -0.43557727 -0.6816885 -0.92956966 0.13656192 0.6884208 0.0037252828 -0.4105409 -0.04016248 0.3108802 0.7306525 0.3623319 -0.80612886 0.39171666 -1.3598206 0.6572215 -0.77778983 0.2754607 -0.33240795 -0.07194776 -0.10364625 -0.053947963
FormanCabernetSauvignon -0.21926935 0.6749987 -0.39886618 -0.19900073 0.43922985 -0.08761445 0.2780724 -1.5777411 0.43771762 0.6741015 0.85762066 0.48203123 0.086757325 0.018575393 -0.6285997 -0.49310333 0.40143389 1.2377155 0.60923874 -0.5019967 0.64949995 -0.49802348 -0.4455271 0.20459253 -0.6721729 1.2086186 -0.12712264 -0.15565284 -0.7409148 0.56816596 0.61668944 -0.45386943 -0.38245982 -0.07692486 -0.021790655 -0.23404998 0.13409634 0.97481275 0.56236875 -0.25501397 1.1048862 1.083495 -0.9009284 -0.16192612 -0.61526626 -0.15305345 -0.14416565 0.9065124 0.7397364 -0.75586295 -1.0846543 -1.039278 0.17773621 -0.8215507 -1.0064306 0.039261434 -0.8823633 -0.10894036 -1.0687467 0.86400026 0.3253185 -0.15955582 -0.14448676 -0.22169362
Rose 0.027303822 0.19193944 -0.6285066 0.1806473 -0.721716 -0.04347278 0.5661695 -0.626136 0.89659566 0.5410108 0.6891686 -0.22907144 0.13097347 0.39016998 0.44660607 -0.1608907 0.5812531 -0.25496644 -0.27626723 -0.5333742 0.071392275 0.26552922 0.17273527 0.34662035 -0.30559337 -0.15188432 -0.77893275 -0.5406916 0.68373805 -0.09555614 -0.030320777 -0.7405925 -0.13189015 0.6692762 -0.06657348 -0.8863948 0.22259523 0.75166976 0.16117857 -0.006706713 0.58686304 0.6002959 -0.48090857 -0.2786085 -0.58864975 -1.0266981 0.5662818 0.61366874 0.051349223 -0.345267 -0.12470309 -0.77457964 0.3343817 0.1072553 -0.6982533 -0.4993159 -0.47413898 0.8596434 -0.16760714 0.06398038 -0.09318005 0.34980378 0.24419805 0.44983003
MariettaCabernetSauvignon -0.21637368 0.6651744 -0.38520855 -0.19943115 0.5282455 -0.08903474 0.275021 -1.6117601 0.36383745 0.58380026 0.82912976 0.40317196 0.055014137 0.045698304 -0.56274664 -0.45116836 0.35278475 1.240565 0.53353566 -0.47215825 0.66248244 -0.512017 -0.46653455 0.20680758 -0.65507895 1.1837482 -0.059909884 -0.13057397 -0.76883304 0.49632236 0.64261144 -0.41314185 -0.43129346 0.014238338 -0.005015224 -0.18974108 0.15171781 1.0284718 0.6005502 -0.26629856 1.1359187 1.0183265 -0.86395746 -0.17203362 -0.62386316 -0.16544837 -0.10991884 0.83747506 0.74575824 -0.7366185 -1.0820577 -0.98514426 0.2187992 -0.85759443 -1.086045 0.06108681 -0.9795145 -0.08549485 -1.1208302 0.8586645 0.29113835 -0.17220347 -0.14917126 -0.31287774
SchlossVolradTrochenbierenausleseRiesling -0.1486269 0.35234377 -0.5718106 -0.014309238 -0.19499852 -0.66612387 -0.28253135 -1.2208315 -0.0038639056 -0.2724618 -0.5941877 0.24498843 -0.5227149 -0.41761237 0.04007476 -0.1224335 0.2519355 1.0306015 1.1813697 -0.85415775 0.013055981 -0.46843997 -0.32144293 -0.38688123 0.53698367 0.8367189 -0.6018991 0.08420857 -0.539067 0.8675217 -0.78507876 0.20118396 -0.2609995 0.4215431 -0.44882265 0.0889852 0.32627982 0.86411375 0.37709895 0.6019248 0.73529804 0.3497407 -1.0853332 -0.1469614 -0.59116316 -0.2693851 -0.13779444 0.43445748 -0.5759958 -0.4719171 0.018651031 -0.07322705 0.35410237 1.0160669 -0.50674015 0.09228822 -0.15270612 0.42736205 -0.43302792 -0.44827178 -0.4114255 -0.57579243 -0.09944964 -0.37411994
MountadamChardonnay 0.47187814 0.6930934 -0.25804546 0.221262 0.5783568 -1.1778383 0.049983844 -1.00018 0.3001705 -0.1586927 0.773062 -1.6350652 0.44302338 0.113597244 0.8554638 -0.3803909 0.6374509 -0.18027842 0.13723291 0.13268244 0.45191592 -0.8912267 -0.42703825 -0.21916266 -0.4275702 -0.21797763 -0.06257358 0.8237196 0.08357553 -0.88586515 0.7200378 -0.6958926 -0.8953947 0.7432741 0.6219009 -0.5933109 -0.16612777 1.220481 1.1403451 0.11508813 1.1203997 0.1338159 -0.7453966 -0.39905232 -0.6667074 -0.9808908 0.16883688 0.59071785 0.005802016 -0.3815951 -0.037862524 0.3213826 0.73136693 0.2865496 -0.8463556 0.359108 -1.4072006 0.6146202 -0.80604094 0.26892287 -0.266204 -0.11662744 -0.08089925 -0.0792513
PeterMccoyChardonnay 0.43908837 0.79134333 -0.24722165 0.18495898 0.6114719 -1.189736 0.09349679 -1.0458105 0.3376177 -0.1818594 0.73755133 -1.5652918 0.3843746 0.12387163 0.7986616 -0.34450766 0.6187582 -0.0963112 0.15680006 0.1224278 0.4087118 -0.9174945 -0.4431346 -0.2241452 -0.4609826 -0.1729088 0.0070719784 0.8310061 0.10504852 -0.8624922 0.59778976 -0.6720587 -0.85799813 0.80747646 0.5960667 -0.5860081 -0.12336319 1.2718104 1.2143937 0.13395189 1.1137499 0.15322265 -0.71301454 -0.37594718 -0.6465631 -0.9774176 0.14566368 0.6843884 -0.057453685 -0.4501484 -0.06307717 0.36043486 0.68908036 0.40423006 -0.7975589 0.4421433 -1.3330275 0.657329 -0.7264796 0.31944928 -0.27205944 -0.13672015 -0.12642212 -0.0923128
MountEdenVineyardEdnaValleyChardonnay 0.42423102 0.7611282 -0.30064067 0.17656346 0.51423097 -1.254029 0.10048358 -1.128738 0.24754192 -0.2594165 0.67439985 -1.6623913 0.44403473 0.06954238 0.8724081 -0.28268293 0.6340608 -0.19627537 0.29161346 0.13767603 0.42696905 -0.84055084 -0.35824785 -0.30358595 -0.42484617 -0.29309466 -0.07787263 0.81386536 0.15595049 -1.056682 0.58565253 -0.6904703 -0.9030387 0.7779324 0.5192725 -0.4530052 -0.031944502 1.2713901 1.2182178 0.1329241 1.0591654 0.2309145 -0.6961486 -0.5180097 -0.5947223 -0.8860045 0.06817502 0.6692696 -0.017668435 -0.3547764 -0.13194054 0.25888035 0.8351136 0.30028954 -0.8516484 0.46292812 -1.4339205 0.67528963 -0.76328963 0.234354 -0.30602783 -0.06493823 -0.07913539 -0.09983161
CorbansSauvignonBlanc -0.08159353 0.28680927 0.33245966 -0.6660087 0.5682964 -0.6571352 -1.1055472 -0.5501233 -0.20671971 0.7789731 1.1483921 0.35874322 0.7115087 -0.75749004 0.26954103 -0.06683217 0.05347281 0.7773654 -0.1347108 -0.6372797 0.9557593 -1.1079818 -0.51843286 -0.52773714 -1.2055429 0.7019942 -1.1627554 0.40800443 -0.38674697 0.4936244 0.54506135 -0.6306137 -0.60373545 -0.5780836 0.10354869 -0.7438281 -0.5271922 -0.2109713 0.0046435413 0.20932855 0.16466087 0.83385664 -1.9808127 0.0016036751 -0.8007669 -0.19978054 -0.07498225 0.6412428 0.59051883 -0.46433178 0.7239119 0.16095485 -0.5899321 0.16520455 -0.3878337 0.025428595 -0.90680695 0.020088706 -1.0060766 0.4167696 -0.71455944 0.12533684 -0.19485451 -0.0824174
White 0.038206723 0.13435976 -0.6867517 0.098486945 -0.70888686 -0.05341102 0.5713241 -0.6263828 0.9173348 0.5932487 0.60744214 -0.24367258 0.07813489 0.44729123 0.35322112 -0.29671675 0.68914586 -0.37737018 -0.18572819 -0.52302235 0.16889313 0.16859555 0.1883289 0.3222206 -0.35412976 -0.076863825 -0.770651 -0.5218037 0.8054936 -0.10333774 -0.14824939 -0.8490019 -0.27071372 0.55773205 0.14593765 -0.974751 0.27919665 0.6847117 0.20446333 -0.07959266 0.42257708 0.74083203 -0.54606783 -0.20617296 -0.44639245 -0.90845007 0.5230009 0.6836057 -0.022495758 -0.3398366 -0.106995456 -0.66696006 0.36344033 0.015439607 -0.69029266 -0.4463031 -0.44398555 0.976107 -0.21952617 -0.042486902 -0.22986518 0.3231291 0.1991659 0.5734194
PeterMccoy -0.36738697 0.4985207 0.12111878 0.015578596 0.43768537 0.33788773 -0.18604313 -0.4212379 -0.121651605 0.16181433 0.2210805 -0.38546827 -0.18975644 0.097422995 0.19152802 -0.30297804 -0.36716828 0.2677125 -0.37147808 -0.17496336 0.64442927 0.19647612 -0.40048063 -0.08808047 -0.10383631 -0.63452446 -0.24168873 -0.27744597 -0.034315765 0.10800898 -0.49394414 0.24404737 -0.09434348 0.02969452 -0.17771551 -0.39504412 0.8662468 -0.15880083 0.5489205 0.3440254 0.32021 0.04280789 -0.51318705 0.14462975 0.109412275 0.08954958 0.15730838 0.13245969 -0.035871424 0.2879201 -0.08977466 -0.48874685 -0.40382308 0.14984888 -0.78023493 0.2962995 -0.26195097 0.16860533 0.058347475 -0.22750625 -0.5900141 0.123071484 -0.016253417 -0.19037637
SchlossRothermelTrochenbierenausleseRiesling -0.1296398 0.40122345 -0.57167554 0.07620839 -0.10483497 -0.65487516 -0.2924409 -1.3386277 -0.0016382247 -0.23794639 -0.52510583 0.13393149 -0.5520822 -0.36794654 0.08394007 -0.15094104 0.3082309 1.1511694 1.3187742 -0.8185825 0.013992359 -0.48315796 -0.43741807 -0.34150717 0.6004755 0.8093772 -0.56272537 0.14553398 -0.76140076 0.9375017 -0.6947751 0.23319797 -0.34090957 0.48919633 -0.55372065 0.11348586 0.3409027 0.9580703 0.38997516 0.71294814 0.9027984 0.267143 -1.1386262 -0.16022003 -0.60497934 -0.28195116 -0.15435512 0.42387134 -0.53804374 -0.47123542 -0.035105765 -0.1698904 0.34633628 1.1270221 -0.5669477 0.14629845 -0.1414778 0.4364132 -0.42669827 -0.42458254 -0.28266802 -0.5632303 -0.12707502 -0.40711945
GamayGrape -0.25804532 0.33013552 -0.2422188 -0.50219744 0.52911884 0.16716701 0.07041451 -0.03612815 0.11261293 0.072102115 0.38274094 -0.33085927 -0.75599045 -0.1053916 0.36376014 -0.45607167 0.7210012 0.7190317 -0.2777547 -0.20547466 0.732784 -0.44222516 0.4211457 0.14818616 -0.7143591 0.3141922 0.43127298 0.04577948 -0.58203405 0.69078666 -0.15573795 -0.678581 0.441432 -0.19036448 -0.08135981 -0.30331144 0.6777201 0.5328042 -0.23003247 0.19533305 0.85597306 -0.0638679 -0.6638725 0.49826992 0.067450926 -1.2628239 -0.021903483 -0.24547829 0.09294963 -0.40353394 -0.032838468 -0.7597258 0.3683884 0.1508939 0.08910523 0.22327031 -0.8323244 0.23303668 0.11686245 -0.12534463 0.12962067 -0.403544 0.25295824 -0.2759057
PageMillWineryCabernetSauvignon -0.17965887 0.6337071 -0.3746765 -0.14899401 0.4281823 -0.068948895 0.25291777 -1.5013591 0.40605733 0.6567774 0.8401036 0.4223851 0.07597413 0.036011282 -0.584183 -0.4813124 0.36928934 1.193197 0.6026689 -0.48492226 0.59822243 -0.48017278 -0.44798416 0.21344653 -0.6176388 1.1884992 -0.105498634 -0.13757916 -0.7710403 0.52332264 0.656225 -0.4316689 -0.3794965 -0.035612304 -0.024129294 -0.2282699 0.087301016 0.98518944 0.53901756 -0.2518314 1.1351902 1.0019296 -0.84976226 -0.15320265 -0.6345361 -0.17529161 -0.11366675 0.8565606 0.7426231 -0.7451129 -1.0388641 -0.9526738 0.20404841 -0.7896873 -0.95739007 0.037240133 -0.84010917 -0.13121967 -1.044812 0.8401149 0.32583958 -0.15758058 -0.16776882 -0.22826232
ChardonnayGrape -0.13591906 0.3621162 -0.4016168 -0.35409728 0.5481808 0.18717368 0.08305971 0.010338272 0.26896098 0.03170095 0.43656698 -0.41011596 -0.77660584 -0.06768001 0.4472607 -0.36316147 0.69234943 0.7182249 -0.3432749 -0.2985978 0.73312306 -0.5820271 0.3841187 0.19950704 -0.75165033 0.37498936 0.5119221 0.04861466 -0.6547782 0.8501793 -0.15681788 -0.6535205 0.42505202 -0.07071175 -0.21865994 -0.34625328 0.6922743 0.5534477 -0.26614508 0.26907593 0.92105335 -0.04517877 -0.61581194 0.54306316 0.05337421 -1.2965341 0.09356739 -0.21748687 0.063420154 -0.31605676 0.051262684 -0.7579338 0.33898258 0.09834449 0.05700545 0.10008748 -0.89142966 0.24506682 0.05079465 -0.15189023 0.10345794 -0.41953227 0.19393134 -0.27554008
WhitehallLanePrimavera -0.052802987 0.3018362 -0.66563666 -0.26313657 -0.1719637 -0.63350815 -0.26021293 -1.3782464 -0.007258783 -0.43267727 -0.57227415 0.28958485 -0.58963674 -0.58844197 0.20804007 -0.16937673 0.38240847 1.2020481 1.1133898 -0.6560698 0.2150534 -0.5871179 -0.20890798 -0.55211496 0.42016676 0.76085275 -0.6934725 0.13682687 -0.52831036 0.7926402 -0.8090746 0.1217479 -0.17273508 0.54206187 -0.47907487 -0.051352154 0.50800234 0.91718626 0.28618866 0.42811477 0.704649 0.28416845 -0.93474716 -0.20970048 -0.5667097 -0.36597607 -0.34905705 0.48910454 -0.4797846 -0.7447336 0.16279851 0.08448732 0.38675657 1.2554067 -0.3603546 0.21723872 -0.11914193 0.20517184 -0.29589346 -0.2941753 -0.5835088 -0.37827405 -0.20666622 -0.46153337
Red -0.0033532307 0.16930264 -0.7141533 0.21088287 -0.7478004 -0.028429328 0.52629966 -0.6760774 0.91370386 0.52853006 0.60180616 -0.28400362 0.08242653 0.41339523 0.49324778 -0.22143425 0.5958501 -0.32318103 -0.25091296 -0.6014418 0.06323809 0.21885078 0.12925456 0.39624214 -0.38592172 -0.04892905 -0.7457268 -0.48641494 0.7420184 -0.16227385 -0.06326332 -0.8209593 -0.25993937 0.6602051 0.059929498 -0.9779892 0.20167196 0.7605161 0.2225742 -0.08770246 0.50113595 0.72008437 -0.60658973 -0.24124558 -0.545061 -0.94903886 0.6261602 0.65543354 0.04085021 -0.31973654 -0.081427276 -0.58808327 0.33145317 0.067775495 -0.7472151 -0.52561957 -0.51063955 0.9662514 -0.26119646 -0.06054217 -0.16926087 0.24818018 0.21569085 0.5143162
ChateauLafiteRothschild -0.36631182 0.38719016 0.13183935 -0.032014936 0.5223586 0.37319213 -0.3360597 -0.49731743 -0.070681304 0.27838016 0.23601966 -0.5308025 -0.10575053 0.02203321 0.1130904 -0.3831423 -0.378078 0.1610521 -0.24140626 -0.31207782 0.6042069 0.2761078 -0.34824494 -0.051446304 -0.055981725 -0.72526073 -0.11185472 -0.44616038 -0.14888516 0.054274272 -0.45143256 0.08330225 -0.05651968 0.000195836 -0.22486432 -0.31169495 0.82473975 0.04422183 0.38646305 0.25868818 0.30603608 0.19891158 -0.4796251 0.062417906 0.08891043 0.14181718 0.10461131 0.1467266 0.04570031 0.32346657 -0.11048253 -0.3654493 -0.24244104 0.12688296 -0.68681383 0.31888625 -0.19736786 0.26877198 0.00015304769 -0.09715604 -0.7024407 0.11457161 -0.08854389 -0.17997648
Strong 0.30736527 0.34194168 -0.23816441 0.19589777 -0.86122304 0.03692128 0.3067013 -0.055599734 1.346184 0.939284 1.0635405 -0.3613988 -0.043869305 0.22445266 0.23897272 -0.6970599 0.7732809 -0.178468 -0.20259713 -0.5137128 0.2842017 0.12786923 0.23452558 0.5852118 -0.26589572 -0.4800834 -0.67069584 -0.6210634 0.15006487 0.43114445 -0.115537934 -0.524633 0.21066894 0.3439913 -0.2517813 -1.1730342 0.16708611 0.41468248 -0.26872915 -0.10957127 0.88493913 0.38037613 -0.24359751 0.012466197 -0.4994955 -1.1162982 0.37743184 0.7176805 0.06755286 -0.22894934 -0.123772286 -1.1636153 -0.20880394 0.30626205 -0.65321285 -0.0611684 0.17963095 0.20081882 0.16333485 0.10244332 -0.055975698 0.79361093 -0.18476689 0.5764861
PinotNoirGrape -0.32344356 0.41294575 -0.3038518 -0.383943 0.50438344 0.22509822 0.017503612 -0.0032895026 0.1815578 0.14011364 0.41060272 -0.42940742 -0.71815425 -0.08955416 0.40768474 -0.35288876 0.66598016 0.7365741 -0.2800224 -0.34736598 0.6916848 -0.53511506 0.39193076 0.20135453 -0.74388754 0.4281989 0.501214 0.08727392 -0.686824 0.72582334 -0.15172246 -0.7122233 0.43824467 -0.21181098 -0.107416056 -0.32369065 0.6315653 0.5467754 -0.18488726 0.23956895 1.0041912 -0.0018092726 -0.7920978 0.5603027 0.031203706 -1.2987815 0.055206914 -0.2659893 0.10073151 -0.35688 -0.055009946 -0.72368175 0.3475912 0.1462905 0.14662199 0.21013607 -0.8747467 0.26319784 0.08028307 -0.14340928 0.21531239 -0.4712499 0.22260916 -0.25879967
MalbecGrape -0.24118857 0.3293895 -0.27977955 -0.52335536 0.46794376 0.060754433 0.02893542 -0.0945227 0.0163033 0.14828736 0.3703177 -0.36105302 -0.80405664 -0.0896729 0.2606661 -0.4715492 0.685454 0.68459135 -0.22828123 -0.25315568 0.75941235 -0.5957508 0.41143832 0.0982224 -0.6402921 0.3751445 0.39726102 -0.051810972 -0.63305825 0.6748363 -0.20213065 -0.7852728 0.36283147 -0.3295874 -0.0260499 -0.234847 0.74322337 0.48847878 -0.1264998 0.32386732 0.8878492 -0.13052532 -0.6896962 0.5344747 0.10962236 -1.3564816 0.017016096 -0.2212602 0.11731651 -0.43685952 -0.2184757 -0.815668 0.46176732 0.042554874 0.16169703 0.25093696 -0.9373726 0.37589985 0.15795195 -0.17126298 0.221276 -0.36825088 0.2554164 -0.18517523
SancerreRegion -0.05684675 0.1435902 0.28284878 0.23488487 -0.54871094 -0.04011514 0.49064 0.022951271 -0.2715918 -0.15923274 0.8154657 0.18969107 -0.082884744 -0.32994005 0.050778016 -0.31718442 -0.10696052 0.41745675 0.5942196 -0.4432719 0.20358495 -0.23748069 0.26391265 -0.072824866 -0.18226343 0.20525251 -0.3667458 -0.38590205 -0.035761002 0.22633177 -0.11360326 -0.23766822 0.25607762 -0.026039846 -0.0380401 -0.057648666 0.13568419 -0.033246428 -0.23744704 -0.43224517 0.31460398 0.66270363 -0.5665903 -0.28309792 -0.16560993 -0.46905577 -0.5223395 -0.39400005 -0.4406475 0.13962232 0.21107687 -0.6755954 -0.32937974 -0.32299757 -0.60767704 -0.11062434 -0.32048583 -0.17947188 0.07956901 -0.67741054 -0.05142256 -0.2734644 -0.25213432 -0.60302234
SaucelitoCanyon -0.35002908 0.22688183 0.11428033 -0.07634918 0.40218616 0.4179699 -0.22204675 -0.5270022 -0.1319983 0.2073081 0.2349417 -0.45247525 -0.13758256 0.013355823 0.11431675 -0.07119453 -0.39282072 0.15689488 -0.4283765 -0.31895965 0.67889047 0.22269246 -0.2785629 -0.007208454 -0.075642675 -0.64230585 -0.22858319 -0.4295274 -0.10026188 0.08125416 -0.49651453 0.13230525 -0.26537886 0.23217954 -0.16207306 -0.23790424 0.7972316 -0.018972337 0.40969765 0.24480575 0.29898116 0.11429023 -0.5341465 0.059938323 0.014171851 0.07349139 0.077302314 0.10303909 0.019983398 0.2174832 -0.08392422 -0.3378114 -0.270411 -0.025098162 -0.7124198 0.4049086 -0.3231829 0.29866812 0.024507185 -0.11237555 -0.557049 0.19626099 -0.008688631 -0.23387013
SaucelitoCanyonZinfandel1998 0.40517873 0.7612507 0.4365053 -0.7281972 0.7907323 -0.5717294 -0.14201011 -0.59023225 0.6035318 -0.14544813 0.88566047 -1.0445191 0.24911176 -0.71472275 -0.13943924 -0.96560353 0.5429936 0.4496522 0.14897577 -0.20084754 1.6064895 -1.2359304 0.09592799 0.03953722 -1.4709257 -0.044104733 0.117196135 0.64992917 -0.59523606 0.32163322 -0.32548663 -0.4934276 -0.6899815 -0.5285867 0.6644914 -0.4163731 0.2746801 -0.3872049 0.2578692 -0.59517276 0.14779407 0.7803756 -0.5995607 -0.2959308 0.49153465 -0.1645294 -0.7943217 0.5465234 -0.008645198 -0.2890158 -0.3528606 -0.5931396 -0.6801775 -0.8844008 -1.1455612 0.94505674 -0.59980524 -0.79765886 -0.2122905 0.59963953 -0.05521347 0.72906196 -0.50976884 -0.38229194
DAnjou -0.35902882 0.36568165 0.09538525 -0.054110054 0.48528293 0.37694636 -0.28719324 -0.5125796 -0.057888284 0.28198376 0.25038236 -0.50995135 -0.09082705 -0.012629874 0.10535641 -0.22780158 -0.42289296 0.18011466 -0.36878976 -0.3330419 0.65012574 0.2369204 -0.36091715 -0.04836587 -0.049021397 -0.7310367 -0.16030625 -0.46520805 -0.1465361 0.09828581 -0.45301262 0.09142746 -0.09876319 0.032274324 -0.25221568 -0.2909189 0.83802134 0.0492132 0.36809784 0.20724763 0.31427467 0.15619577 -0.51798993 0.025913505 0.053697973 0.102590606 0.08069094 0.14145745 0.057338443 0.34802705 -0.11032367 -0.36176804 -0.26800865 0.14868416 -0.70043105 0.3006482 -0.29829893 0.3265864 0.032071948 -0.08017662 -0.67836845 0.14783393 -0.056045856 -0.24656229
StonleighSauvignonBlanc -0.103549264 0.21529882 0.32538676 -0.81894064 0.5365368 -0.65659744 -1.0097351 -0.6946618 -0.3488286 0.7572709 1.1069871 0.5113453 0.73255354 -0.7379081 0.17541198 0.022134898 0.0744017 0.7505039 -0.20379375 -0.5161663 0.9234973 -0.9112179 -0.47783822 -0.6046246 -1.1986969 0.6406033 -1.3158895 0.3209438 -0.18439248 0.33087733 0.5707892 -0.6852072 -0.6710103 -0.52499884 0.09549441 -0.6495049 -0.48888186 -0.1771828 0.113326795 0.22695231 0.018194454 0.8095608 -1.9273502 -0.12181165 -0.81010777 -0.20456907 -0.082137704 0.6823066 0.65560097 -0.5620777 0.610678 0.11052177 -0.4983303 0.13316214 -0.3818544 0.005454987 -0.9840757 0.1306674 -0.94242287 0.453538 -0.6823363 0.16975509 -0.05003402 -0.02872802
SchlossRothermel -0.3760918 0.21977592 0.14821272 -0.14224394 0.4262221 0.4107831 -0.26169354 -0.5005203 -0.17571199 0.29044262 0.28250808 -0.45744595 -0.22447205 0.05495151 0.03551108 -0.23474514 -0.393668 0.200877 -0.35036698 -0.3626505 0.6558769 0.28614405 -0.243162 -0.011696595 -0.07523723 -0.71478784 -0.2155863 -0.50427616 -0.15511829 0.09245657 -0.49977937 0.049649846 -0.16188827 0.1340726 -0.21753998 -0.24851426 0.8183632 0.009136635 0.37182555 0.26789874 0.29032922 0.14892001 -0.5054298 0.07212114 0.0062257787 0.037949868 0.09212167 0.11635529 0.060677335 0.24596424 -0.09764446 -0.37209672 -0.26216072 0.059200432 -0.6910309 0.41303855 -0.22620063 0.35776144 0.025858248 -0.10541584 -0.6168908 0.1840932 -0.029943883 -0.17780517
AustralianRegion -0.009040853 0.051306214 0.2520392 0.20477247 -0.58322847 -0.09234177 0.515707 0.026465708 -0.29019547 -0.17345527 0.80599123 0.16310906 -0.022422574 -0.36696276 0.044128563 -0.3093683 -0.12781413 0.36992025 0.54626215 -0.45933545 0.20786475 -0.2522972 0.2667017 -0.059785236 -0.112169 0.21614362 -0.3803136 -0.36763278 -0.0023613772 0.23891754 -0.113962404 -0.18480784 0.13301837 -0.012280631 0.020202372 -0.06828548 0.17391893 -0.058530994 -0.22997333 -0.40503064 0.26205185 0.63310933 -0.54556084 -0.3233085 -0.19652624 -0.49936366 -0.51666164 -0.41132143 -0.42912674 0.105337664 0.18258414 -0.6606001 -0.31626838 -0.41623363 -0.6534326 -0.13642573 -0.35759225 -0.189726 0.053322714 -0.67130786 0.027394868 -0.2659592 -0.20469256 -0.6066272
CentralCoastRegion -0.05784494 0.09882666 0.2127032 0.20034586 -0.6289668 -0.0620697 0.5438168 0.006043064 -0.347077 -0.19778404 0.76802903 0.21665129 -0.13930129 -0.2709659 -0.059027158 -0.37224478 -0.1681234 0.40972474 0.60803056 -0.52557456 0.23787618 -0.26324272 0.27957946 -0.0641176 -0.072536655 0.21417825 -0.4265128 -0.49929604 -0.0017655978 0.19459198 -0.1881944 -0.30322307 0.19960979 -0.0242057 -0.01127588 -0.017163225 0.2212042 -0.06645498 -0.1992165 -0.4024528 0.3156834 0.7055684 -0.51128805 -0.29495558 -0.17681544 -0.4672684 -0.46135423 -0.41136912 -0.47087744 0.124045774 0.21939507 -0.6940204 -0.27642882 -0.4247617 -0.62632316 -0.1074081 -0.27435586 -0.11647029 0.025314603 -0.67995536 -0.10277042 -0.2643829 -0.27103823 -0.60383946
CotturiZinfandel 0.37698722 0.7920311 0.4548832 -0.72661644 0.84342974 -0.6085537 -0.15200973 -0.58001804 0.60048497 -0.23090883 0.8821139 -1.0705367 0.21369046 -0.7221438 -0.09874799 -0.963362 0.53509206 0.4690421 0.086717784 -0.2226169 1.6403651 -1.3569858 0.071362816 0.05797827 -1.5402092 -0.012452863 0.24220768 0.7382543 -0.60911536 0.30431446 -0.34020248 -0.42497736 -0.6962393 -0.5162941 0.68313664 -0.38181955 0.27952245 -0.3732435 0.29257253 -0.6396288 0.1975919 0.785894 -0.6428841 -0.25968993 0.47939906 -0.11645532 -0.79468435 0.54758173 -0.051729348 -0.27603984 -0.33747035 -0.55664784 -0.70823205 -0.9163286 -1.2440753 0.9876642 -0.6853131 -0.8324978 -0.29230428 0.60588574 -0.122186705 0.68353105 -0.5485029 -0.44493285
SemillonGrape -0.29132152 0.27680948 -0.29894227 -0.41094127 0.47273692 0.23627144 0.0730109 -0.050765947 0.021089682 0.13718398 0.435697 -0.28868493 -0.8362578 -0.052975215 0.3622831 -0.35342932 0.6641788 0.7395189 -0.315798 -0.2940404 0.71586907 -0.51820123 0.3469004 0.1792064 -0.72960305 0.43710887 0.4063159 0.0038341568 -0.5713251 0.68696606 -0.14189796 -0.7336476 0.3949172 -0.18260545 -0.055519804 -0.31984848 0.6322713 0.506458 -0.11916663 0.22108093 0.9476791 -0.08570629 -0.7734338 0.56818753 0.0006034551 -1.302003 0.07873712 -0.26614928 0.06739001 -0.44516018 -0.023477543 -0.747523 0.3807092 0.06104553 0.092900395 0.16218935 -0.9096388 0.29456708 0.034077577 -0.18303397 0.15243451 -0.45207432 0.25388497 -0.24147083
SauvignonBlancGrape -0.2657273 0.32460707 -0.30424052 -0.4844479 0.46336594 0.12242169 0.08761554 -0.12660152 0.06777782 0.07156353 0.42611504 -0.31188625 -0.81509185 -0.0838505 0.35298237 -0.43120885 0.67380184 0.7184263 -0.29342178 -0.2149151 0.7447594 -0.56865215 0.4117045 0.13251534 -0.68737984 0.33735663 0.35548934 -0.010319081 -0.55935425 0.6114161 -0.12131852 -0.7652589 0.45298314 -0.23124021 -0.040229723 -0.28335664 0.69893044 0.5428104 -0.19484954 0.23306383 0.94416046 -0.12799479 -0.6594643 0.52032804 0.053305846 -1.3173356 0.018810373 -0.24229237 0.107718855 -0.5131408 -0.09246063 -0.80254704 0.449223 0.15945165 0.13499841 0.21457577 -0.9127066 0.2634527 0.083193995 -0.064590834 0.16687629 -0.3582389 0.20897247 -0.2661126
Elyse -0.32746446 0.2789309 0.12241465 -0.065010175 0.42698142 0.3911287 -0.15983911 -0.5312294 -0.14186226 0.18156844 0.26576284 -0.4008761 -0.24634935 0.056398503 0.13462645 -0.13964672 -0.38689822 0.21719909 -0.46693152 -0.2158694 0.68599635 0.22979455 -0.28545955 -0.064515956 -0.09759553 -0.65679413 -0.2732991 -0.40771115 -0.032391988 0.121709 -0.4988393 0.20563577 -0.21998896 0.25861442 -0.14831354 -0.33199957 0.8485865 -0.07621689 0.50373054 0.27579287 0.32800254 0.05975667 -0.45153138 0.117803894 -0.016170919 0.02581858 0.104870394 0.1404692 0.029492311 0.13171221 -0.055636965 -0.3954175 -0.31137025 0.0630418 -0.73393124 0.42676458 -0.2946677 0.2214517 0.05084225 -0.116113305 -0.60420823 0.19671202 -0.02296889 -0.22287293
Moderate 0.35735726 0.3260307 -0.20408572 0.13562761 -0.8659025 -0.04898962 0.34917012 -0.08823535 1.0441092 1.0568439 1.151484 -0.26217845 -0.1954147 0.40836814 0.008403746 -0.7280381 0.70547247 -0.16858749 -0.027829949 -0.4243345 0.3979777 0.21368633 0.31590083 0.58827645 -0.12817988 -0.4350703 -0.72116673 -0.8804978 0.14009172 0.42832205 -0.09062635 -0.6257961 0.18836632 0.42045724 -0.17229457 -1.1731747 0.31775168 0.3380568 -0.22662227 -0.11211172 0.87116224 0.38628733 -0.0762496 -0.13792655 -0.53228146 -1.2508488 0.25838333 0.7014005 0.14867516 -0.4402987 -0.08967827 -1.2436105 0.078348346 0.20202176 -0.5045798 0.0008652715 0.25397202 0.28450543 0.22827773 0.15082446 -0.082564585 0.84139234 -0.31863227 0.53287053
SangioveseGrape -0.27681774 0.36153406 -0.28967613 -0.42657807 0.45924798 0.17905006 0.04579274 -0.06954252 0.04889836 0.14222495 0.42815086 -0.29199976 -0.8376549 -0.05186817 0.33113596 -0.35399172 0.6608232 0.7574221 -0.28575188 -0.22656296 0.766358 -0.58026725 0.35255802 0.1738778 -0.68156934 0.43530115 0.39812553 -0.005267124 -0.61506385 0.6731841 -0.1696237 -0.69571364 0.40325147 -0.1869628 -0.07236582 -0.28577983 0.6887727 0.5201311 -0.097671926 0.25314093 0.95780784 -0.13413428 -0.697045 0.5675062 0.03399019 -1.2930261 0.038597252 -0.2026042 0.09099117 -0.47498345 -0.098169185 -0.8037759 0.3774517 0.08691876 0.11553492 0.25866282 -0.8969494 0.2484322 0.055710834 -0.14774041 0.15382081 -0.37963247 0.19263218 -0.23234364
McGuinnesso -0.3522717 0.28190503 0.16617222 -0.10127353 0.39097506 0.3040973 -0.21986341 -0.52737236 -0.06949882 0.21285005 0.2463069 -0.4880007 -0.18319926 0.024169177 0.062324896 -0.13557531 -0.42016152 0.2090315 -0.42177954 -0.3351925 0.6040038 0.21496484 -0.23824044 -0.03324612 -0.06467942 -0.68661064 -0.15246052 -0.38468122 -0.15549074 0.10073813 -0.45865327 0.1642814 -0.19692996 0.15339683 -0.27931166 -0.27266404 0.81041205 -0.068779 0.39268926 0.2963291 0.27208617 0.18575926 -0.5158562 0.08503612 -0.022220029 0.08016751 0.09519715 0.15865259 0.023573926 0.27346972 -0.103453696 -0.34922248 -0.30423737 0.06060342 -0.79761195 0.3690688 -0.27301154 0.33427218 -0.029847724 -0.059450652 -0.55986416 0.17010874 -0.03642838 -0.2450841
CabernetFrancGrape -0.3018342 0.41507384 -0.34209397 -0.3542628 0.47734633 0.21974243 0.046774156 -0.026244823 0.106086 0.16256893 0.46038315 -0.32282624 -0.6969285 -0.08125005 0.36668655 -0.31092498 0.6364025 0.7142841 -0.23426774 -0.26216173 0.7337279 -0.54376435 0.3510622 0.10961005 -0.709483 0.43383357 0.41128322 0.0075755715 -0.5986449 0.66383994 -0.16144267 -0.7326288 0.4435203 -0.22769278 -0.1057627 -0.27090356 0.67222416 0.5416132 -0.121522024 0.24231543 0.9253104 -0.064720534 -0.74929905 0.51317084 0.076232366 -1.278368 -0.00022961281 -0.22625197 0.09388888 -0.3686173 -0.08143815 -0.74682206 0.379737 0.1172623 0.20622906 0.19144037 -0.95780593 0.30697748 0.14079577 -0.1930265 0.15560322 -0.45135143 0.21700467 -0.20847966
NewZealandRegion -0.045895126 0.12159554 0.24530195 0.1984216 -0.6151901 -0.10555116 0.49113527 -0.008174736 -0.35798594 -0.06517673 0.74384385 0.18900461 -0.09564555 -0.3350691 -0.023802714 -0.39246687 -0.09759067 0.37550274 0.63382226 -0.51893944 0.12650605 -0.2850092 0.14432307 -0.074564025 -0.13646893 0.25067246 -0.37237877 -0.45352653 0.017089484 0.24007504 -0.14547238 -0.3540423 0.15901692 -0.1206318 0.029980786 -0.07174287 0.16068082 -0.016671782 -0.14891757 -0.43502188 0.24014688 0.73231435 -0.6217678 -0.29668576 -0.15646797 -0.46757758 -0.49422777 -0.3523947 -0.4581665 0.15878047 0.18568595 -0.61136544 -0.3174693 -0.40068096 -0.5841941 -0.12632589 -0.33903816 -0.052991506 0.05082679 -0.81564504 -0.100845516 -0.35104036 -0.20037998 -0.5357235
ToursRegion -0.023773046 0.14856641 0.27773926 0.21829963 -0.65321267 -0.1358785 0.50879455 0.053712197 -0.42047316 -0.09989981 0.7719168 0.20864019 -0.16171774 -0.3161713 -0.055296477 -0.43321878 -0.15141098 0.3781836 0.6215457 -0.516601 0.17050214 -0.26977745 0.21308224 -0.03910943 -0.068999045 0.22832884 -0.3695936 -0.4787103 -0.015969869 0.22319627 -0.11139525 -0.29288045 0.1801285 -0.09069187 -0.005644411 -0.06717597 0.18400136 -0.040642485 -0.15472643 -0.43249187 0.32380974 0.65216553 -0.5536659 -0.30809897 -0.18465246 -0.5475376 -0.49442232 -0.34977737 -0.41148308 0.12615779 0.18094854 -0.6892225 -0.27209133 -0.36119378 -0.5995083 -0.09706783 -0.3118586 -0.11060665 0.097565375 -0.7928839 -0.047169976 -0.31186244 -0.25065625 -0.57790995
ClosDeLaPoussie -0.31803682 0.30943778 0.13505223 -0.063434765 0.44890368 0.37771675 -0.24391256 -0.49342942 -0.12692474 0.21711338 0.2661192 -0.42711672 -0.16932076 0.056635257 0.09890313 -0.21699202 -0.37082636 0.19256464 -0.3794204 -0.25421068 0.66823995 0.25756773 -0.28125232 -0.026899304 -0.0785452 -0.68324494 -0.2008148 -0.44501406 -0.08361192 0.032919765 -0.46341026 0.11495343 -0.1478513 0.16094638 -0.22296946 -0.29144907 0.8199481 0.008981969 0.41512337 0.22123682 0.3078945 0.09170781 -0.43980426 0.05130912 0.041565746 0.053809814 0.11553304 0.14441392 0.043704163 0.2327582 -0.07874723 -0.3800107 -0.2211752 0.054919656 -0.7237048 0.34311262 -0.25251094 0.2752961 0.035438444 -0.06625001 -0.67312974 0.19751586 -0.06879491 -0.20042388
MariettaZinfandel 0.37601218 0.76276356 0.41988122 -0.6708007 0.74916154 -0.53703046 -0.14699532 -0.5422372 0.63707954 -0.14073123 0.87547696 -1.0229484 0.3037672 -0.72609824 -0.13100368 -0.9260598 0.49379975 0.4114257 0.088889815 -0.23382048 1.5337238 -1.2462382 0.03999648 0.034508564 -1.4824967 -0.025324015 0.16793199 0.6806553 -0.5431721 0.26781788 -0.29210985 -0.4321019 -0.66122204 -0.57229435 0.695234 -0.42696166 0.22437316 -0.3867088 0.2933477 -0.6246503 0.16793525 0.80395705 -0.6605471 -0.24790174 0.46707496 -0.09545138 -0.74377376 0.5571049 -0.035723336 -0.24880964 -0.35837698 -0.50375926 -0.72751534 -0.9149245 -1.1494576 0.9015519 -0.6499966 -0.8259449 -0.2695984 0.5641846 -0.06570438 0.66808647 -0.49845463 -0.35263905
EarlyHarvest -0.085630976 0.3194694 -0.5630078 -0.3807193 -0.14555076 -0.43445018 -0.12730579 -1.3201874 -0.15718167 -0.60513204 -0.31342325 0.3360887 -0.68382406 -0.6311349 0.23081522 -0.10641625 0.21596779 1.2266958 1.1638422 -0.66766244 0.29032773 -0.5261627 0.031933974 -0.68439627 0.053999364 0.55401313 -0.844545 -0.016822802 -0.34117678 0.34986183 -0.74134696 -0.2535067 0.0946984 0.6473027 -0.54405165 -0.03348609 0.4875436 0.8486695 0.21194108 0.24727 0.6965599 0.4536818 -0.7766218 -0.36134323 -0.52441937 -0.3523939 -0.50977063 0.508188 -0.3287168 -0.9001085 0.40978575 0.28493223 0.4957152 1.3446182 0.025410414 0.33539867 -0.020342998 0.13030294 -0.08184366 -0.059745703 -0.8135965 -0.19331849 -0.44078785 -0.44222644
ArroyoGrandeRegion -0.010975942 0.091692746 0.28587642 0.17741476 -0.48949245 -0.056275893 0.42383635 0.005051474 -0.41830912 -0.12511651 0.811014 0.18109068 -0.12193049 -0.34147248 -0.022541132 -0.5129656 -0.09275285 0.4274459 0.76797366 -0.50172627 0.2229282 -0.18148224 0.21254258 -0.049340516 -0.19769369 0.23639749 -0.40813407 -0.50975835 -0.035934605 0.22209582 -0.11903972 -0.35052606 0.18389077 -0.09200759 0.029653482 -0.06670539 0.16411424 0.001936076 -0.23411147 -0.4361812 0.24122386 0.7046816 -0.5745705 -0.37777635 -0.12477581 -0.49543777 -0.5064707 -0.41941643 -0.39412093 0.11628249 0.2118366 -0.64401543 -0.23480645 -0.4285424 -0.6078719 -0.19750082 -0.23310621 -0.17350803 0.044525813 -0.71761775 -0.12522812 -0.2653731 -0.25064784 -0.54154754
SonomaRegion -0.05644857 0.12817192 0.24592653 0.17949368 -0.60893184 -0.10317144 0.49206623 -0.0073064924 -0.29674512 -0.1230463 0.72500634 0.19551791 -0.07386496 -0.36935887 0.018062407 -0.35276654 -0.13392814 0.3908925 0.55518275 -0.52232265 0.15339561 -0.2681657 0.21375348 -0.06724576 -0.14336638 0.21694547 -0.35374388 -0.42317164 0.00090048107 0.22363165 -0.15427956 -0.27461505 0.18908687 -0.09605612 -0.009446136 -0.05110738 0.17009957 -0.037641607 -0.17676775 -0.45466372 0.25436532 0.6947967 -0.5617313 -0.29874155 -0.16349995 -0.44345137 -0.484417 -0.34475788 -0.44001138 0.14097144 0.15978293 -0.614876 -0.32421342 -0.36901718 -0.6002951 -0.11700225 -0.3337677 -0.11692282 0.06297713 -0.71950686 -0.07002672 -0.28959224 -0.21163404 -0.57105947
KalinCellars -0.3329916 0.23361072 0.10388246 -0.059961032 0.45790336 0.46031886 -0.3101007 -0.52833265 -0.09961617 0.28035137 0.31070113 -0.38734525 -0.09255013 -0.050111488 0.1748145 -0.18805686 -0.33574834 0.23017797 -0.3761432 -0.2263251 0.71269083 0.36832222 -0.32087854 -0.018367233 -0.10476254 -0.6800562 -0.23866028 -0.45982823 -0.117989525 0.1198657 -0.50120836 0.2169484 -0.1642032 0.13666032 -0.19194211 -0.26365647 0.8017362 0.12252167 0.3211849 0.15190986 0.28123122 0.043833308 -0.5327536 0.02348651 0.05159271 0.052194264 0.11078603 0.077144496 0.027818901 0.21474075 -0.09867061 -0.39662343 -0.27581486 0.044972084 -0.7323812 0.30725485 -0.3579964 0.20596856 0.054237977 -0.10419132 -0.62552905 0.18782341 -0.004466451 -0.24877585
Longridge -0.3981322 0.31012166 0.089569956 -0.105160855 0.43354806 0.38256803 -0.23211725 -0.47800145 -0.092249826 0.35503542 0.2091202 -0.52544385 -0.15440513 0.05713467 -0.012920398 -0.18287277 -0.34587917 0.16069292 -0.35869122 -0.34484524 0.5941304 0.21120565 -0.3226978 -0.039260127 -0.066331334 -0.68980634 -0.16602346 -0.453267 -0.1456628 0.1259224 -0.5195533 0.0477511 -0.18541628 0.07438298 -0.19538493 -0.25236 0.823062 -0.022153834 0.46289003 0.284087 0.28289172 0.20266552 -0.54849064 0.14411658 0.07718373 0.10011519 0.059676696 0.13927937 -0.010294665 0.36182773 -0.15242231 -0.3629955 -0.29784265 0.052033186 -0.7013935 0.43578583 -0.2771625 0.423445 -0.0040220274 -0.15082702 -0.6039244 0.13886885 0.0074545834 -0.13328475
CotesDOrRegion -0.12587038 0.1131262 0.23872882 0.23800147 -0.44119734 0.046272784 0.42853287 -0.025447648 -0.33370388 -0.13175285 0.7453864 0.1795707 -0.1256642 -0.30122516 0.036718376 -0.51644534 -0.06622593 0.4389168 0.78079575 -0.5049795 0.17406183 -0.15781286 0.19646776 -0.030733401 -0.1797494 0.23189078 -0.38754058 -0.4462198 0.0022258987 0.10403535 -0.17780872 -0.35929865 0.27066928 -0.15079935 0.06593438 -0.02792362 0.04177384 0.027499277 -0.16339259 -0.45625782 0.2903688 0.65627825 -0.61725247 -0.30516174 -0.10778898 -0.37462702 -0.45183316 -0.42560154 -0.49237478 0.14002179 0.21045281 -0.6569409 -0.28062773 -0.3456806 -0.5877169 -0.13476945 -0.18783209 -0.14583415 -0.014203799 -0.71151495 -0.11923874 -0.35658818 -0.21155912 -0.5394442
CaliforniaRegion -0.1192434 0.048967548 0.17132707 0.23200367 -0.4438249 0.040393118 0.51219463 -0.01510272 -0.3329111 -0.16875918 0.83391666 0.17747737 -0.08038553 -0.30273053 0.00080684485 -0.43561715 -0.104035966 0.40065286 0.7174905 -0.5122155 0.23708019 -0.22124776 0.28336963 -0.10495275 -0.23506716 0.27522603 -0.40118656 -0.4535948 0.002067735 0.13855098 -0.15474248 -0.35008916 0.2527597 -0.073772885 0.1060019 -0.07518528 0.11255122 -0.019372359 -0.1728997 -0.4817877 0.26650935 0.7423792 -0.62306684 -0.2730919 -0.11886775 -0.4204596 -0.5341429 -0.46149945 -0.4914427 0.1537714 0.21331972 -0.59130096 -0.2650633 -0.46923205 -0.6104907 -0.12045876 -0.33647874 -0.15817283 -0.06843601 -0.7108332 -0.12356163 -0.37011653 -0.22235806 -0.54525226
ChiantiRegion -0.1145653 0.13717172 0.25008294 0.25167033 -0.5593083 -0.019621924 0.5162966 -2.3622946e-05 -0.3613804 -0.16540362 0.8235065 0.21559618 -0.064610265 -0.31346455 0.045441512 -0.42033398 -0.18528478 0.45967892 0.5856873 -0.46073306 0.21806413 -0.24322191 0.24315935 -0.043548357 -0.08683858 0.236918 -0.42058685 -0.44735333 -0.03384025 0.10809767 -0.056058697 -0.23935331 0.25683835 -0.05740502 0.04618061 -0.086278744 0.1737812 0.016206969 -0.15429899 -0.49376762 0.35702792 0.6213331 -0.5239757 -0.28576845 -0.24385475 -0.49883518 -0.45379883 -0.42801157 -0.39003685 0.12607898 0.1814026 -0.6717866 -0.31070316 -0.3824471 -0.66530216 -0.14750469 -0.33103853 -0.2085181 -0.0046416987 -0.66906184 -0.062163383 -0.28151956 -0.22353704 -0.65430325
PortugalRegion -0.090346016 0.06690086 0.27254313 0.1642804 -0.6292081 -0.091151 0.48398453 -0.028969625 -0.3168868 -0.0885641 0.71920323 0.1189625 -0.16393614 -0.29873055 -0.052124288 -0.4283752 -0.11339432 0.3614769 0.63299716 -0.55658233 0.17057678 -0.28087625 0.2508248 0.025741149 -0.10504835 0.2117905 -0.34211543 -0.44109726 -0.052483067 0.17416741 -0.19953674 -0.3255553 0.14290634 -0.13414924 0.07290595 -0.038764596 0.12521675 0.0023798519 -0.20552656 -0.5102429 0.28073007 0.70380956 -0.54506826 -0.28716964 -0.14605415 -0.4638684 -0.4576936 -0.38544095 -0.470211 0.123115994 0.15296142 -0.6394304 -0.3371999 -0.39815584 -0.6397536 -0.031778894 -0.24775009 -0.07159857 0.043660324 -0.73394257 -0.03893209 -0.25109592 -0.24941911 -0.5952457
MuscadetRegion -0.0011477683 0.11133826 0.28104624 0.1753044 -0.62103623 -0.11677358 0.50614816 -0.013617944 -0.3228374 -0.17585877 0.77009845 0.15644296 -0.113680884 -0.39165503 0.021296851 -0.39945298 -0.13587505 0.40625033 0.54185873 -0.50687593 0.2040629 -0.2003108 0.249807 -0.0008936098 -0.12093717 0.16090113 -0.3444485 -0.4642511 -0.054752562 0.25016025 -0.11868515 -0.21737291 0.16489476 -0.035238054 0.005502106 -0.05259251 0.19891395 -0.0005872177 -0.22873713 -0.49547487 0.2960445 0.64039207 -0.49793288 -0.37439454 -0.17611217 -0.52708435 -0.50446635 -0.39714387 -0.41763064 0.09752153 0.1808897 -0.6602711 -0.31481817 -0.4040685 -0.6436127 -0.1196915 -0.33175832 -0.2164841 0.11979437 -0.69783825 -0.017112115 -0.24741745 -0.22346082 -0.67576027
Bordeaux -0.3258325 0.6829209 -0.40494487 -0.09776679 -0.62272793 -0.016334517 0.04469281 -1.064938 0.049437363 -0.46105093 -0.0066469614 0.21762414 -0.2881782 -0.9436435 0.46868217 0.23561265 0.0878683 1.2229505 1.3765877 -0.6222402 0.24197559 -0.23736827 0.12987235 -0.69476056 0.15967728 0.37396812 -1.185306 0.11682977 -0.21880183 0.13431956 -0.8831029 -0.18556693 0.2895206 0.55987996 -0.59543467 0.07898776 0.56259435 0.9095235 0.2840521 0.2992631 0.76141906 0.35427073 -0.95213264 -0.49025247 -0.54371285 -0.37172908 -0.8248056 0.45823035 -0.3592222 -0.9205574 0.07297783 -0.12395564 0.08668383 1.6726897 0.30865806 0.5209497 -0.037421677 -0.16440243 0.5979366 -0.33771372 -0.11245808 -0.06756917 -0.35863337 -0.44855446
SauterneRegion -0.005585871 0.11212442 0.29419076 0.29597646 -0.55668724 -0.008285897 0.47066566 0.053417396 -0.29832923 -0.16280577 0.8412418 0.15109818 -0.10281113 -0.35400265 0.015435667 -0.36718565 -0.1132028 0.3944719 0.6387367 -0.4635867 0.2033472 -0.1962616 0.2154158 -0.00827035 -0.14471194 0.21115845 -0.38013354 -0.39603278 -0.041017506 0.19131525 -0.0752972 -0.20133393 0.19664522 0.008168868 0.02987496 -0.051677104 0.05913489 0.041962173 -0.18480107 -0.524031 0.3977118 0.609297 -0.53096306 -0.32421526 -0.21105264 -0.5129967 -0.486897 -0.41769397 -0.4376774 0.08111116 0.22133282 -0.6398128 -0.30832246 -0.36014113 -0.6409134 -0.11406438 -0.2714684 -0.29652599 0.0460052 -0.65979034 -0.024361614 -0.27004975 -0.27287918 -0.6202008
Bancroft -0.3691244 0.28284177 0.14068575 -0.09596593 0.46735653 0.39879888 -0.27843186 -0.47960418 -0.16546577 0.30490828 0.25132793 -0.45379442 -0.14950864 0.044006344 0.05994592 -0.2724916 -0.3517152 0.13381818 -0.3669097 -0.3021427 0.6428172 0.2764096 -0.33399278 -0.031800065 -0.11312578 -0.7087564 -0.19574976 -0.47200873 -0.08455195 0.06790529 -0.46330556 0.06735532 -0.14127026 0.08095448 -0.12911208 -0.291614 0.7839118 0.010969199 0.44148332 0.23525755 0.28771824 0.119684845 -0.5084146 0.07348953 0.051170953 0.05394528 0.1119876 0.14066955 0.04787973 0.24942099 -0.1160975 -0.3572446 -0.26819107 0.027779385 -0.6613769 0.37851503 -0.27993932 0.3090954 0.0406607 -0.13814513 -0.625494 0.16035397 -0.007514677 -0.14251886
